{"learner":{"attributes":{"scikit_learn":"{\"_estimator_type\": \"classifier\"}"},"feature_names":["gender","SeniorCitizen","Partner","Dependents","tenure","PhoneService","MultipleLines","OnlineSecurity","OnlineBackup","DeviceProtection","TechSupport","StreamingTV","StreamingMovies","PaperlessBilling","MonthlyCharges","TotalCharges","InternetService_DSL","InternetService_Fiber optic","InternetService_No","Contract_Month-to-month","Contract_One year","Contract_Two year","PaymentMethod_Bank transfer (automatic)","PaymentMethod_Credit card (automatic)","PaymentMethod_Electronic check","PaymentMethod_Mailed check"],"feature_types":["int","int","int","int","int","int","int","int","int","int","int","int","int","int","float","float","int","int","int","int","int","int","int","int","int","int"],"gradient_booster":{"model":{"gbtree_model_param":{"num_parallel_tree":"1","num_trees":"100"},"iteration_indptr":[0,1,2,3,4,5,6,7,8,9,10,11,12,13,14,15,16,17,18,19,20,21,22,23,24,25,26,27,28,29,30,31,32,33,34,35,36,37,38,39,40,41,42,43,44,45,46,47,48,49,50,51,52,53,54,55,56,57,58,59,60,61,62,63,64,65,66,67,68,69,70,71,72,73,74,75,76,77,78,79,80,81,82,83,84,85,86,87,88,89,90,91,92,93,94,95,96,97,98,99,100],"tree_info":[0,0,0,0,0,0,0,0,0,0,0,0,0,0,0,0,0,0,0,0,0,0,0,0,0,0,0,0,0,0,0,0,0,0,0,0,0,0,0,0,0,0,0,0,0,0,0,0,0,0,0,0,0,0,0,0,0,0,0,0,0,0,0,0,0,0,0,0,0,0,0,0,0,0,0,0,0,0,0,0,0,0,0,0,0,0,0,0,0,0,0,0,0,0,0,0,0,0,0,0],"trees":[{"base_weights":[-7.571573E-2,-1.0591806E0,7.257419E-1,-1.2331369E0,-6.6615623E-1,1.3783596E-2,1.2938092E0,-3.987154E-1,-1.0970718E0,-1.00656E0,-3.5529554E-1,6.587985E-1,-4.5480317E-1,2.0663974E0,6.614995E-1,-1.2169461E0,-7.7838516E-1,-8.460739E-1,-3.8043967E-1,-9.5792884E-1,-1.4900376E-1,-1.962666E-1,1.0866982E0,7.87279E-2,-6.2861896E-1,2.8182774E0,1.7949281E0,8.2391286E-1,-3.5803837E-1,2.2556877E-3,-1.2331904E0,-1.7443727E-1,-8.8095665E-1,-1.0568632E0,-5.561392E-1,-1.2395105E0,-2.1067312E-1,-3.964853E-1,8.369095E-2,2.660547E-1,-7.377335E-1,1.2588726E0,2.5323707E-1,2.8152773E-1,-5.664668E-1,-4.4710332E-1,-9.380108E-1,8.687204E-1,1.2618558E-1,1.1838042E0,2.1134481E0,3.578153E-1,1.1725183E0,-8.812215E-1,2.0591897E-1,-3.849965E-1,-2.5504738E-1,1.0384133E-1,-1.8962239E-1,-3.7876973E-1,-2.1212359E-1,-2.1098475E-1,-3.9095837E-1,1.1268482E-1,-2.4761657E-1,-6.1877605E-2,-3.8940644E-1,-1.9390418E-1,3.1130227E-1,1.9744605E-2,-1.8024369E-1,2.4310853E-1,-2.140485E-2,-9.1303885E-2,1.5805405E-1,-4.162245E-2,-2.9565662E-1,2.900447E-1,4.9613917E-1,2.9249927E-1,-6.70455E-2,-9.155041E-3,2.250141E-1,-2.8194046E-1,-4.060967E-2,-2.359047E-1,-7.0331074E-2,-3.2147837E-1,-2.1420652E-1,5.0453365E-1,1.8953605E-1,4.4917455E-1,6.682705E-1,1.7313781E-3,2.4458392E-1,1.8729584E-1,4.1854224E-1,-3.378889E-1,-1.2241239E-1,2.5808924E-1,-3.3576083E-1],"categories":[],"categories_nodes":[],"categories_segments":[],"categories_sizes":[],"default_left":[0,0,0,0,0,0,0,0,0,0,0,0,0,0,0,0,0,0,0,0,0,0,0,0,0,0,0,0,0,0,0,0,0,0,0,0,0,0,0,0,0,0,0,0,0,0,0,0,0,0,0,0,0,0,0,0,0,0,0,0,0,0,0,0,0,0,0,0,0,0,0,0,0,0,0,0,0,0,0,0,0,0,0,0,0,0,0,0,0,0,0,0,0,0,0,0,0,0,0,0,0],"id":0,"left_children":[1,3,5,7,9,11,13,-1,15,17,19,21,23,25,27,29,31,33,-1,35,37,39,41,43,45,47,49,51,53,-1,55,57,59,61,63,65,67,69,71,73,75,77,79,81,83,85,87,-1,-1,89,91,93,95,97,99,-1,-1,-1,-1,-1,-1,-1,-1,-1,-1,-1,-1,-1,-1,-1,-1,-1,-1,-1,-1,-1,-1,-1,-1,-1,-1,-1,-1,-1,-1,-1,-1,-1,-1,-1,-1,-1,-1,-1,-1,-1,-1,-1,-1,-1,-1],"loss_changes":[9.01414E2,3.4284424E1,2.5485132E2,3.171692E0,1.6543137E1,8.5133766E1,1.6985657E2,0E0,4.875107E0,2.1044083E0,1.0427511E1,4.3575485E1,1.5180817E1,2.7044128E1,3.2454956E1,2.1768494E0,2.5988865E0,2.4627037E0,0E0,4.2625504E0,3.7491198E0,1.0303253E1,1.1037827E1,5.5219407E0,6.4984627E0,6.204773E0,2.0527985E1,2.6850739E1,8.261446E0,0E0,9.742279E-1,2.052642E0,1.6111736E0,1.5040112E0,6.1109257E0,6.6391945E-1,4.5261097E0,3.0097647E0,3.8976753E0,3.5094106E0,2.662609E0,5.937248E0,5.3107214E0,4.6793227E0,1.5036752E0,5.55457E0,5.704422E-1,0E0,0E0,1.0705502E1,2.044403E0,1.1792667E1,1.0793655E1,1.2097807E0,1.3093556E1,0E0,0E0,0E0,0E0,0E0,0E0,0E0,0E0,0E0,0E0,0E0,0E0,0E0,0E0,0E0,0E0,0E0,0E0,0E0,0E0,0E0,0E0,0E0,0E0,0E0,0E0,0E0,0E0,0E0,0E0,0E0,0E0,0E0,0E0,0E0,0E0,0E0,0E0,0E0,0E0,0E0,0E0,0E0,0E0,0E0,0E0],"parents":[2147483647,0,0,1,1,2,2,3,3,4,4,5,5,6,6,8,8,9,9,10,10,11,11,12,12,13,13,14,14,15,15,16,16,17,17,19,19,20,20,21,21,22,22,23,23,24,24,25,25,26,26,27,27,28,28,30,30,31,31,32,32,33,33,34,34,35,35,36,36,37,37,38,38,39,39,40,40,41,41,42,42,43,43,44,44,45,45,46,46,49,49,50,50,51,51,52,52,53,53,54,54],"right_children":[2,4,6,8,10,12,14,-1,16,18,20,22,24,26,28,30,32,34,-1,36,38,40,42,44,46,48,50,52,54,-1,56,58,60,62,64,66,68,70,72,74,76,78,80,82,84,86,88,-1,-1,90,92,94,96,98,100,-1,-1,-1,-1,-1,-1,-1,-1,-1,-1,-1,-1,-1,-1,-1,-1,-1,-1,-1,-1,-1,-1,-1,-1,-1,-1,-1,-1,-1,-1,-1,-1,-1,-1,-1,-1,-1,-1,-1,-1,-1,-1,-1,-1,-1,-1],"split_conditions":[1E0,1E0,1E0,1E0,1E0,6E0,1.4E1,-3.987154E-1,1E0,7.2E1,1E0,2.085E1,1E0,1.1695E2,5.6E1,3.72E1,2.3E1,1.057E2,-3.8043967E-1,1E0,1.0325E2,2.06E1,5.53E1,4.5E1,2.3E1,1E0,7.895E1,1E0,9.915E1,2.2556877E-3,1E0,1E0,2.3445E3,9.855E1,1.089E2,7.48E1,1E0,4.2375E3,1E0,1.96E1,1.99E1,1E0,1.3475E2,1E0,4.5E1,4.405E1,1.93275E3,8.687204E-1,1.2618558E-1,3.6455E2,1E0,1E0,1E0,9.335E1,1.0605E2,-3.849965E-1,-2.5504738E-1,1.0384133E-1,-1.8962239E-1,-3.7876973E-1,-2.1212359E-1,-2.1098475E-1,-3.9095837E-1,1.1268482E-1,-2.4761657E-1,-6.1877605E-2,-3.8940644E-1,-1.9390418E-1,3.1130227E-1,1.9744605E-2,-1.8024369E-1,2.4310853E-1,-2.140485E-2,-9.1303885E-2,1.5805405E-1,-4.162245E-2,-2.9565662E-1,2.900447E-1,4.9613917E-1,2.9249927E-1,-6.70455E-2,-9.155041E-3,2.250141E-1,-2.8194046E-1,-4.060967E-2,-2.359047E-1,-7.0331074E-2,-3.2147837E-1,-2.1420652E-1,5.0453365E-1,1.8953605E-1,4.4917455E-1,6.682705E-1,1.7313781E-3,2.4458392E-1,1.8729584E-1,4.1854224E-1,-3.378889E-1,-1.2241239E-1,2.5808924E-1,-3.3576083E-1],"split_indices":[19,17,17,20,20,4,4,0,12,4,12,14,5,15,4,15,4,14,0,24,14,15,14,4,4,10,14,24,14,0,24,10,15,14,14,14,3,15,6,14,14,24,15,11,14,14,15,0,0,15,13,12,6,14,14,0,0,0,0,0,0,0,0,0,0,0,0,0,0,0,0,0,0,0,0,0,0,0,0,0,0,0,0,0,0,0,0,0,0,0,0,0,0,0,0,0,0,0,0,0,0],"split_type":[0,0,0,0,0,0,0,0,0,0,0,0,0,0,0,0,0,0,0,0,0,0,0,0,0,0,0,0,0,0,0,0,0,0,0,0,0,0,0,0,0,0,0,0,0,0,0,0,0,0,0,0,0,0,0,0,0,0,0,0,0,0,0,0,0,0,0,0,0,0,0,0,0,0,0,0,0,0,0,0,0,0,0,0,0,0,0,0,0,0,0,0,0,0,0,0,0,0,0,0,0],"sum_hessian":[1.141653E3,5.1247534E2,6.291776E2,3.537602E2,1.5871513E2,2.796796E2,3.4949802E2,2.0235164E2,1.5140855E2,7.468947E1,8.402566E1,1.17514145E2,1.6216545E2,1.562796E2,1.9321841E2,1.07975E2,4.343355E1,4.8913486E1,2.5775986E1,2.0499012E1,6.352664E1,3.937434E1,7.81398E1,3.9983223E1,1.22182236E2,3.8968422E1,1.1731118E2,1.6683354E2,2.6384869E1,1.4207237E0,1.06554276E2,6.697697E0,3.6735855E1,2.6790789E1,2.2122696E1,1.4410197E1,6.0888157E0,3.0444078E1,3.3082565E1,2.1513815E1,1.7860525E1,6.4338486E1,1.3801315E1,3.0849998E1,9.133224E0,7.854572E1,4.3636513E1,3.7547695E1,1.4207237E0,4.1809868E1,7.550131E1,7.2253944E1,9.4579605E1,1.3395394E1,1.2989473E1,9.214407E1,1.4410197E1,3.2473683E0,3.4503288E0,9.5391445E0,2.719671E1,1.2583552E1,1.4207236E1,4.8710527E0,1.7251644E1,1.0148026E0,1.3395394E1,4.8710527E0,1.2177632E0,9.5391445E0,2.0904934E1,5.074013E0,2.8008553E1,6.697697E0,1.4816118E1,5.6828947E0,1.2177631E1,3.8968422E1,2.5370066E1,5.074013E0,8.727303E0,1.9078289E1,1.177171E1,4.262171E0,4.8710527E0,2.9226315E1,4.931941E1,2.4964144E1,1.8672367E1,2.0904934E1,2.0904934E1,1.4004276E1,6.1497036E1,4.1403946E1,3.0849998E1,2.8414473E1,6.616513E1,7.91546E0,5.479934E0,8.930263E0,4.0592103E0],"tree_param":{"num_deleted":"0","num_feature":"26","num_nodes":"101","size_leaf_vector":"1"}},{"base_weights":[-8.362829E-2,-9.040122E-1,4.5317826E-1,-1.0584016E0,-4.8043784E-1,-4.280059E-3,7.7597344E-1,-3.553577E-1,-9.049986E-1,-8.173076E-1,-1.5195203E-1,4.1906893E-1,-3.5395274E-1,1.1480508E0,3.3028355E-1,-1.0387537E0,-5.832897E-1,2.2071053E-1,-8.59807E-1,-3.9660034E-1,4.997304E-2,-1.5638784E-1,6.703909E-1,4.7164824E-2,-4.97528E-1,1.5424781E0,1.0259093E0,5.2673614E-1,-7.259942E-2,-1.1185402E0,-6.122508E-1,-6.8199545E-1,-1.922756E-1,-7.068345E-1,-1.1547314E0,-2.4868844E-1,-3.1487015E-1,-1.8722986E-1,4.4987902E-1,1.4164652E-1,-6.803123E-1,8.598794E-1,3.732266E-1,3.47388E-1,-3.0629003E-1,-2.8703222E-1,-7.199405E-1,1.5736803E0,1.0026735E-1,7.7632874E-1,1.2750244E0,-1.3640226E-1,6.882633E-1,1.4747746E-1,-7.195248E-1,1.8572676E-3,-3.4122205E-1,-2.1257627E-1,7.123468E-2,-1.4777071E-2,-2.3115739E-1,7.658581E-2,-1.7781602E-1,-2.8840417E-1,-1.0629729E-1,-8.6190954E-2,-3.6080068E-1,-1.0752963E-1,1.5586883E-1,1.5115389E-1,-1.1261575E-1,4.027277E-1,4.9441297E-2,7.3722616E-2,-1.9920816E-1,-2.3107709E-1,4.1514862E-2,1.5669455E-1,3.459833E-1,1.66768E-1,-2.767099E-2,-9.893141E-2,2.1322165E-1,-1.4249444E-1,1.5747961E-1,-1.8642598E-1,1.08060865E-2,-2.539141E-1,-1.1041922E-1,4.8042545E-1,1.3093053E-1,1.2151117E-1,3.035754E-1,3.968023E-1,9.086642E-2,3.0867558E-3,-2.0285894E-1,1.4176068E-1,3.2639346E-1,-5.9799936E-2,1.3346732E-1,-4.842712E-2,-2.5386223E-1],"categories":[],"categories_nodes":[],"categories_segments":[],"categories_sizes":[],"default_left":[0,0,0,0,0,0,0,0,0,0,0,0,0,0,0,0,0,0,0,0,0,0,0,0,0,0,0,0,0,0,0,0,0,0,0,0,0,0,0,0,0,0,0,0,0,0,0,0,0,0,0,0,0,0,0,0,0,0,0,0,0,0,0,0,0,0,0,0,0,0,0,0,0,0,0,0,0,0,0,0,0,0,0,0,0,0,0,0,0,0,0,0,0,0,0,0,0,0,0,0,0,0,0],"id":1,"left_children":[1,3,5,7,9,11,13,-1,15,17,19,21,23,25,27,29,31,-1,33,35,37,39,41,43,45,47,49,51,53,55,57,59,61,63,65,67,-1,69,71,73,75,77,79,81,83,85,87,89,-1,91,93,95,97,99,101,-1,-1,-1,-1,-1,-1,-1,-1,-1,-1,-1,-1,-1,-1,-1,-1,-1,-1,-1,-1,-1,-1,-1,-1,-1,-1,-1,-1,-1,-1,-1,-1,-1,-1,-1,-1,-1,-1,-1,-1,-1,-1,-1,-1,-1,-1,-1,-1],"loss_changes":[4.8963034E2,2.8247223E1,9.9259E1,5.1469116E0,1.3076321E1,4.146057E1,6.4973694E1,0E0,5.817131E0,4.5046463E0,3.0641863E0,1.8428158E1,8.856592E0,8.745514E0,1.4341202E1,2.8593674E0,1.6487246E0,0E0,1.7808418E0,2.4410558E0,3.3709943E0,6.23661E0,4.6552315E0,4.4934464E0,5.085335E0,1.3101654E0,9.373138E0,1.3118965E1,8.664698E0,1.8431778E0,1.6926527E0,2.0026054E0,2.066768E0,3.2913818E0,4.0637207E-1,2.219853E0,0E0,3.1089497E0,3.135898E0,2.334729E0,1.16922E0,4.666157E0,3.1271615E0,5.849901E0,2.9863176E0,6.475428E0,2.104309E0,7.902603E-1,0E0,7.096752E0,3.3912964E0,1.959E0,7.9318275E0,4.8008647E0,9.542699E-1,0E0,0E0,0E0,0E0,0E0,0E0,0E0,0E0,0E0,0E0,0E0,0E0,0E0,0E0,0E0,0E0,0E0,0E0,0E0,0E0,0E0,0E0,0E0,0E0,0E0,0E0,0E0,0E0,0E0,0E0,0E0,0E0,0E0,0E0,0E0,0E0,0E0,0E0,0E0,0E0,0E0,0E0,0E0,0E0,0E0,0E0,0E0,0E0],"parents":[2147483647,0,0,1,1,2,2,3,3,4,4,5,5,6,6,8,8,9,9,10,10,11,11,12,12,13,13,14,14,15,15,16,16,18,18,19,19,20,20,21,21,22,22,23,23,24,24,25,25,26,26,27,27,28,28,29,29,30,30,31,31,32,32,33,33,34,34,35,35,37,37,38,38,39,39,40,40,41,41,42,42,43,43,44,44,45,45,46,46,47,47,49,49,50,50,51,51,52,52,53,53,54,54],"right_children":[2,4,6,8,10,12,14,-1,16,18,20,22,24,26,28,30,32,-1,34,36,38,40,42,44,46,48,50,52,54,56,58,60,62,64,66,68,-1,70,72,74,76,78,80,82,84,86,88,90,-1,92,94,96,98,100,102,-1,-1,-1,-1,-1,-1,-1,-1,-1,-1,-1,-1,-1,-1,-1,-1,-1,-1,-1,-1,-1,-1,-1,-1,-1,-1,-1,-1,-1,-1,-1,-1,-1,-1,-1,-1,-1,-1,-1,-1,-1,-1,-1,-1,-1,-1,-1,-1],"split_conditions":[1E0,9.335E1,1E0,1E0,1E0,6E0,1.8E1,-3.553577E-1,1E0,9.42E1,1.0325E2,2.085E1,1E0,1.1695E2,4.4E1,1E0,8.19E1,2.2071053E-1,7.8065E3,6.63835E3,1E0,3.72E1,9.555E1,9.9455E2,1.8E1,1E0,1E0,1E0,1E0,3.72E1,5.2643E3,1.15885E3,1E0,1.057E2,7E1,6.0969E3,-3.1487015E-1,1E0,4.7E1,1E0,1.0035E2,1E0,5.53E1,1E0,5.415E1,1E0,1E0,1E0,1.0026735E-1,7.895E1,1.5209E3,3.03855E3,9.545E1,1E0,4.8E1,1.8572676E-3,-3.4122205E-1,-2.1257627E-1,7.123468E-2,-1.4777071E-2,-2.3115739E-1,7.658581E-2,-1.7781602E-1,-2.8840417E-1,-1.0629729E-1,-8.6190954E-2,-3.6080068E-1,-1.0752963E-1,1.5586883E-1,1.5115389E-1,-1.1261575E-1,4.027277E-1,4.9441297E-2,7.3722616E-2,-1.9920816E-1,-2.3107709E-1,4.1514862E-2,1.5669455E-1,3.459833E-1,1.66768E-1,-2.767099E-2,-9.893141E-2,2.1322165E-1,-1.4249444E-1,1.5747961E-1,-1.8642598E-1,1.08060865E-2,-2.539141E-1,-1.1041922E-1,4.8042545E-1,1.3093053E-1,1.2151117E-1,3.035754E-1,3.968023E-1,9.086642E-2,3.0867558E-3,-2.0285894E-1,1.4176068E-1,3.2639346E-1,-5.9799936E-2,1.3346732E-1,-4.842712E-2,-2.5386223E-1],"split_indices":[19,14,17,20,20,4,4,0,12,14,14,14,5,15,4,24,14,0,15,15,24,15,15,15,4,10,6,13,10,15,15,15,9,14,4,15,0,6,4,23,15,13,14,13,14,0,24,23,0,14,15,15,14,24,4,0,0,0,0,0,0,0,0,0,0,0,0,0,0,0,0,0,0,0,0,0,0,0,0,0,0,0,0,0,0,0,0,0,0,0,0,0,0,0,0,0,0,0,0,0,0,0,0],"split_type":[0,0,0,0,0,0,0,0,0,0,0,0,0,0,0,0,0,0,0,0,0,0,0,0,0,0,0,0,0,0,0,0,0,0,0,0,0,0,0,0,0,0,0,0,0,0,0,0,0,0,0,0,0,0,0,0,0,0,0,0,0,0,0,0,0,0,0,0,0,0,0,0,0,0,0,0,0,0,0,0,0,0,0,0,0,0,0,0,0,0,0,0,0,0,0,0,0,0,0,0,0,0,0],"sum_hessian":[1.109887E3,4.387206E2,6.711664E2,3.2042834E2,1.18292244E2,2.7807346E2,3.9309293E2,1.7216058E2,1.4826778E2,5.766616E1,6.0626083E1,1.2569543E2,1.5237802E2,2.1338E2,1.7971294E2,1.03151985E2,4.511579E1,1.101578E0,5.6564583E1,2.6977093E1,3.364899E1,3.832338E1,8.737205E1,4.0342224E1,1.1203579E2,4.7703648E1,1.6567635E2,1.20599266E2,5.911367E1,8.552933E1,1.7622658E1,3.5428272E1,9.687518E0,3.9482372E1,1.708221E1,2.3120607E1,3.8564858E0,2.14549E1,1.2194088E1,2.489277E1,1.3430607E1,5.219561E1,3.5176437E1,2.182301E1,1.8519215E1,5.8736706E1,5.3299084E1,4.620792E1,1.4957271E0,8.481709E1,8.085925E1,2.3652231E1,9.694704E1,4.4684525E1,1.4429149E1,1.4221128E0,8.4107216E1,1.597727E1,1.6453876E0,4.5395365E0,3.0888737E1,4.745805E0,4.9417133E0,2.1925203E1,1.7557167E1,1.2608302E0,1.5821381E1,2.0697449E1,2.4231586E0,4.2323036E0,1.7222597E1,2.0540347E0,1.0140054E1,2.2660013E1,2.2327578E0,1.2154444E1,1.2761638E0,2.5563826E1,2.6631784E1,2.512291E1,1.0053529E1,7.6529655E0,1.4170044E1,1.57511835E1,2.7680316E0,2.840817E1,3.0328537E1,3.8175976E1,1.5123105E1,4.4709282E1,1.4986352E0,3.3981342E1,5.0835754E1,7.673734E1,4.121914E0,1.936944E1,4.282792E0,6.438199E1,3.2565044E1,2.0781374E1,2.3903149E1,3.090069E0,1.1339079E1],"tree_param":{"num_deleted":"0","num_feature":"26","num_nodes":"103","size_leaf_vector":"1"}},{"base_weights":[-7.634905E-2,-7.7887565E-1,3.1264904E-1,-9.6621454E-1,-4.3305168E-1,-1.0286604E-2,5.309859E-1,-3.259406E-1,-8.1200653E-1,-7.2703886E-1,-2.11506E-1,2.706134E-1,-2.8915557E-1,6.948E-1,4.328661E-3,-9.47373E-1,-5.0704634E-1,-3.2850373E-1,-8.403272E-1,-6.7263377E-1,-6.868466E-2,-1.3136508E-1,4.6251634E-1,4.6332505E-2,-4.2336318E-1,9.0946084E-1,5.0774443E-1,-2.6764467E-1,2.3609123E-1,-9.683984E-1,-9.673271E-3,-7.271794E-2,-5.9679073E-1,-5.590177E-1,5.749308E-1,-6.7823815E-1,-3.0734235E-1,-7.432961E-1,5.000944E-2,4.7647172E-1,-1.5124027E-1,1.6972046E-1,-5.383819E-1,6.247163E-1,2.613631E-1,8.459444E-1,-9.9058345E-2,-2.9068595E-1,-6.969168E-1,1.0004295E0,3.6323074E-1,3.9671516E-1,1.0345554E0,2.0182411E-1,-6.222107E-1,3.7160677E-1,-7.083464E-1,-3.0968475E-1,-1.6476019E-1,-1.526297E-1,1.0576198E-1,-3.186254E-1,-1.2284108E-1,3.2071203E-2,-2.5922522E-1,4.1232342E-1,-1.9344202E-1,-3.2898724E-1,-1.4362758E-1,-2.5289458E-1,-5.8894165E-2,6.4175404E-3,4.3541548E-1,-1.8091862E-1,-9.971453E-3,-1.9361E-1,8.10892E-2,-1.1061841E-2,-2.3336378E-1,9.4196595E-2,2.7944425E-1,-1.5458083E-1,1.1402729E-1,-2.2028577E-1,3.902805E-1,-1.3750933E-1,8.172887E-2,-3.7673447E-2,-1.6739269E-1,-2.734552E-1,-1.304167E-1,2.4109551E-1,3.337851E-1,2.448675E-1,2.3326701E-3,-1.95525E-3,1.548678E-1,-8.638004E-2,3.3178747E-1,1.4678621E-1,-1.5487534E-1,-2.5865272E-1,-4.918176E-2,2.240436E-1,-7.962908E-3,-3.3788565E-1,-5.6446794E-2],"categories":[],"categories_nodes":[],"categories_segments":[],"categories_sizes":[],"default_left":[0,0,0,0,0,0,0,0,0,0,0,0,0,0,0,0,0,0,0,0,0,0,0,0,0,0,0,0,0,0,0,0,0,0,0,0,0,0,0,0,0,0,0,0,0,0,0,0,0,0,0,0,0,0,0,0,0,0,0,0,0,0,0,0,0,0,0,0,0,0,0,0,0,0,0,0,0,0,0,0,0,0,0,0,0,0,0,0,0,0,0,0,0,0,0,0,0,0,0,0,0,0,0,0,0,0,0],"id":2,"left_children":[1,3,5,7,9,11,13,-1,15,17,19,21,23,25,27,29,31,33,35,37,39,41,43,45,47,49,51,53,55,57,-1,59,61,63,65,67,-1,69,-1,71,73,75,77,79,81,83,85,87,89,91,93,95,97,99,101,103,105,-1,-1,-1,-1,-1,-1,-1,-1,-1,-1,-1,-1,-1,-1,-1,-1,-1,-1,-1,-1,-1,-1,-1,-1,-1,-1,-1,-1,-1,-1,-1,-1,-1,-1,-1,-1,-1,-1,-1,-1,-1,-1,-1,-1,-1,-1,-1,-1,-1,-1],"loss_changes":[2.865167E2,2.3786316E1,4.759397E1,3.5965576E0,8.514477E0,2.148172E1,3.4739326E1,0E0,4.051491E0,2.287674E0,5.045023E0,1.060106E1,6.2148533E0,1.1871445E1,6.1488123E0,1.409523E0,1.3559427E0,3.2807684E0,6.057358E-1,1.2013922E0,2.778603E0,5.597505E0,2.861454E0,4.7592635E0,3.3679962E0,6.6805725E0,9.322159E0,7.597596E0,7.0026937E0,1.3923874E0,0E0,1.530509E0,2.1462193E0,2.4953668E0,4.1839457E0,1.6560507E0,0E0,7.581749E-1,0E0,3.584875E0,2.805036E0,2.3539746E0,2.2947612E0,4.531025E0,4.170301E0,5.4793477E0,4.7865343E0,2.9292502E0,1.3713942E0,1.7759552E0,3.5051532E0,6.7043304E0,2.9947796E0,4.3953834E0,2.697918E0,6.997148E0,1.2994473E0,0E0,0E0,0E0,0E0,0E0,0E0,0E0,0E0,0E0,0E0,0E0,0E0,0E0,0E0,0E0,0E0,0E0,0E0,0E0,0E0,0E0,0E0,0E0,0E0,0E0,0E0,0E0,0E0,0E0,0E0,0E0,0E0,0E0,0E0,0E0,0E0,0E0,0E0,0E0,0E0,0E0,0E0,0E0,0E0,0E0,0E0,0E0,0E0,0E0,0E0],"parents":[2147483647,0,0,1,1,2,2,3,3,4,4,5,5,6,6,8,8,9,9,10,10,11,11,12,12,13,13,14,14,15,15,16,16,17,17,18,18,19,19,20,20,21,21,22,22,23,23,24,24,25,25,26,26,27,27,28,28,29,29,31,31,32,32,33,33,34,34,35,35,37,37,39,39,40,40,41,41,42,42,43,43,44,44,45,45,46,46,47,47,48,48,49,49,50,50,51,51,52,52,53,53,54,54,55,55,56,56],"right_children":[2,4,6,8,10,12,14,-1,16,18,20,22,24,26,28,30,32,34,36,38,40,42,44,46,48,50,52,54,56,58,-1,60,62,64,66,68,-1,70,-1,72,74,76,78,80,82,84,86,88,90,92,94,96,98,100,102,104,106,-1,-1,-1,-1,-1,-1,-1,-1,-1,-1,-1,-1,-1,-1,-1,-1,-1,-1,-1,-1,-1,-1,-1,-1,-1,-1,-1,-1,-1,-1,-1,-1,-1,-1,-1,-1,-1,-1,-1,-1,-1,-1,-1,-1,-1,-1,-1,-1,-1,-1],"split_conditions":[1E0,1E0,1E0,1E0,1E0,7E0,3.08825E3,-3.259406E-1,1E0,6.2E1,1E0,1E0,1E0,9E0,9.545E1,7.415E1,2.3E1,6.0969E3,7.2E1,1E0,3.4E1,2.475E1,4.86E1,3.488E2,2.5E1,1E0,9.735E1,8.57E1,1.0825E2,1E0,-9.673271E-3,1E0,2.3445E3,9.65E1,1.1345E2,6.6E1,-3.0734235E-1,6.7E1,5.000944E-2,3.1E1,4.8188E3,1.93E1,1.99E1,1E0,5.035E1,2.1755E2,1E0,1E0,1.93275E3,7.575E1,2E0,1E0,9.214E2,5.3E1,1E0,1E0,1E0,-3.0968475E-1,-1.6476019E-1,-1.526297E-1,1.0576198E-1,-3.186254E-1,-1.2284108E-1,3.2071203E-2,-2.5922522E-1,4.1232342E-1,-1.9344202E-1,-3.2898724E-1,-1.4362758E-1,-2.5289458E-1,-5.8894165E-2,6.4175404E-3,4.3541548E-1,-1.8091862E-1,-9.971453E-3,-1.9361E-1,8.10892E-2,-1.1061841E-2,-2.3336378E-1,9.4196595E-2,2.7944425E-1,-1.5458083E-1,1.1402729E-1,-2.2028577E-1,3.902805E-1,-1.3750933E-1,8.172887E-2,-3.7673447E-2,-1.6739269E-1,-2.734552E-1,-1.304167E-1,2.4109551E-1,3.337851E-1,2.448675E-1,2.3326701E-3,-1.95525E-3,1.548678E-1,-8.638004E-2,3.3178747E-1,1.4678621E-1,-1.5487534E-1,-2.5865272E-1,-4.918176E-2,2.240436E-1,-7.962908E-3,-3.3788565E-1,-5.6446794E-2],"split_indices":[19,17,17,20,20,4,15,0,12,4,11,16,5,4,14,14,4,15,4,25,4,15,14,15,4,25,14,14,14,24,0,13,15,14,14,4,0,4,0,4,15,14,14,13,15,15,12,2,15,14,4,13,15,4,1,0,0,0,0,0,0,0,0,0,0,0,0,0,0,0,0,0,0,0,0,0,0,0,0,0,0,0,0,0,0,0,0,0,0,0,0,0,0,0,0,0,0,0,0,0,0,0,0,0,0,0,0],"split_type":[0,0,0,0,0,0,0,0,0,0,0,0,0,0,0,0,0,0,0,0,0,0,0,0,0,0,0,0,0,0,0,0,0,0,0,0,0,0,0,0,0,0,0,0,0,0,0,0,0,0,0,0,0,0,0,0,0,0,0,0,0,0,0,0,0,0,0,0,0,0,0,0,0,0,0,0,0,0,0,0,0,0,0,0,0,0,0,0,0,0,0,0,0,0,0,0,0,0,0,0,0,0,0,0,0,0,0],"sum_hessian":[1.0465396E3,3.7260904E2,6.739305E2,2.4052081E2,1.3208823E2,2.7223242E2,4.0169806E2,1.3174121E2,1.0877961E2,5.578322E1,7.6305016E1,1.3563708E2,1.3659534E2,3.061518E2,9.5546265E1,7.387933E1,3.4900276E1,1.3210375E1,4.2572845E1,1.7167294E1,5.913772E1,4.393081E1,9.170627E1,3.92169E1,9.737844E1,1.407585E2,1.653933E2,4.3888405E1,5.165786E1,7.216315E1,1.7161863E0,6.2864647E0,2.8613811E1,1.0828645E1,2.3817303E0,2.5133293E1,1.7439552E1,1.5939765E1,1.2275298E0,7.1501493E0,5.198757E1,2.558652E1,1.834429E1,4.960312E1,4.210315E1,5.292286E0,3.3924614E1,6.6963066E1,3.0415369E1,1.1995053E2,2.0807964E1,1.3805109E2,2.734222E1,1.906968E1,2.4818727E1,4.570611E1,5.95175E0,6.1350983E1,1.08121605E1,3.0069013E0,3.2795632E0,6.8726482E0,2.1741163E1,3.6062412E0,7.2224035E0,1.3621173E0,1.019613E0,6.662345E0,1.8470947E1,1.3024872E1,2.9148924E0,5.571411E0,1.5787379E0,9.914612E0,4.207296E1,2.2154655E0,2.3371054E1,6.301941E0,1.2042349E1,2.5647661E1,2.3955458E1,5.140137E0,3.6963013E1,1.0459034E0,4.246382E0,1.7126177E1,1.6798435E1,4.230229E1,2.4660776E1,1.5363876E1,1.5051494E1,4.651909E1,7.343144E1,8.578803E0,1.2229162E1,3.177771E1,1.0627337E2,1.2452755E0,2.6096945E1,1.3845569E1,5.2241106E0,1.5710738E1,9.107988E0,2.3080238E1,2.2625872E1,2.6541631E0,3.2975867E0],"tree_param":{"num_deleted":"0","num_feature":"26","num_nodes":"107","size_leaf_vector":"1"}},{"base_weights":[-6.873058E-2,-6.696883E-1,2.1973482E-1,-8.4192544E-1,-2.94773E-1,9.1676E-3,4.217487E-1,-1.0087752E0,-6.6626054E-1,-2.9451355E-2,-5.781419E-1,-3.1035635E-1,1.1302806E-1,5.3459215E-1,1.00682326E-1,-3.08657E-1,-6.25792E-1,-8.186418E-1,-3.6424762E-1,-1.3456315E-1,3.4669665E-1,-2.479241E-1,-2.6528862E-1,5.5798326E-2,-5.2277577E-1,4.2323023E-1,-5.761407E-2,8.5762066E-1,4.459918E-1,-7.1408826E-1,1.693757E-1,-2.6102108E-1,-2.76809E-1,-9.186821E-1,-3.9636052E-1,-9.630439E-2,-6.022077E-1,1.6081779E-1,-2.746996E-1,-3.0172092E-1,6.3084537E-1,6.0232278E-2,-5.980609E-1,-1.8229793E-1,1.2960152E-1,-2.7176893E-1,-6.663404E-1,2.5525612E-1,7.39027E-1,-1.870763E-1,3.8500786E-1,4.4629228E-1,1.0134004E0,2.8051135E-1,6.584323E-1,-8.684059E-1,-3.1676136E-2,2.3090303E-1,-7.3458487E-1,1.8320972E-2,-1.972673E-1,5.702916E-2,-2.8385478E-1,1.3597664E-1,-1.5587395E-1,2.5762028E-1,-6.5528825E-2,-4.2679768E-2,-2.692194E-1,-1.994598E-1,1.721068E-1,2.7340075E-2,-1.753955E-1,-2.5290704E-1,1.654244E-1,3.5493806E-1,3.7705127E-2,1.2760212E-1,-1.6282922E-1,-8.331735E-2,-2.5035995E-1,8.822471E-3,2.3868002E-1,-1.9662888E-1,4.58228E-2,-2.1105117E-1,5.162331E-2,1.3186355E-1,-3.382915E-3,3.1368023E-1,1.0059148E-1,-9.3289986E-2,1.9365098E-2,1.7424528E-1,-1.2602697E-1,2.3253173E-1,-2.375243E-1,3.830149E-1,2.621825E-1,1.1531416E-1,-1.9242615E-2,1.4993817E-1,2.9808336E-1,-5.8527436E-2,-2.9708663E-1,1.0168664E-1,-6.641114E-2,-4.1978367E-2,-3.202018E-1],"categories":[],"categories_nodes":[],"categories_segments":[],"categories_sizes":[],"default_left":[0,0,0,0,0,0,0,0,0,0,0,0,0,0,0,0,0,0,0,0,0,0,0,0,0,0,0,0,0,0,0,0,0,0,0,0,0,0,0,0,0,0,0,0,0,0,0,0,0,0,0,0,0,0,0,0,0,0,0,0,0,0,0,0,0,0,0,0,0,0,0,0,0,0,0,0,0,0,0,0,0,0,0,0,0,0,0,0,0,0,0,0,0,0,0,0,0,0,0,0,0,0,0,0,0,0,0,0,0],"id":3,"left_children":[1,3,5,7,9,11,13,15,17,19,21,23,25,27,29,-1,31,33,35,37,39,41,-1,43,45,47,49,51,53,55,57,-1,59,61,63,65,67,69,71,73,75,77,79,-1,81,83,85,87,89,91,93,95,97,99,101,103,-1,105,107,-1,-1,-1,-1,-1,-1,-1,-1,-1,-1,-1,-1,-1,-1,-1,-1,-1,-1,-1,-1,-1,-1,-1,-1,-1,-1,-1,-1,-1,-1,-1,-1,-1,-1,-1,-1,-1,-1,-1,-1,-1,-1,-1,-1,-1,-1,-1,-1,-1,-1],"loss_changes":[1.70984E2,2.04068E1,2.8351952E1,5.7360077E0,7.6688786E0,1.0900682E1,1.2271393E1,2.0357513E-1,4.7388E0,2.175709E0,4.7728577E0,6.2969737E0,1.3142948E1,6.815216E0,5.1415606E0,0E0,4.447508E-1,2.6751556E0,2.3971095E0,1.8161633E0,2.408808E0,2.749146E0,0E0,1.5717037E0,1.6601734E0,4.4830923E0,9.284068E0,2.946846E0,6.8265953E0,5.8126235E-1,4.8157644E0,0E0,6.548357E-1,1.9302826E0,1.8621917E0,2.438854E0,2.6153598E0,5.2921567E0,3.3873153E0,2.4714966E0,2.2772732E0,3.3753986E0,6.668196E-1,0E0,1.8624842E0,3.4030583E0,1.1123838E0,2.9038703E0,3.368946E0,3.918509E0,6.030713E0,7.273064E0,2.6823044E-1,4.1004906E0,4.107422E0,2.6459122E-1,0E0,3.9344196E0,9.513576E-1,0E0,0E0,0E0,0E0,0E0,0E0,0E0,0E0,0E0,0E0,0E0,0E0,0E0,0E0,0E0,0E0,0E0,0E0,0E0,0E0,0E0,0E0,0E0,0E0,0E0,0E0,0E0,0E0,0E0,0E0,0E0,0E0,0E0,0E0,0E0,0E0,0E0,0E0,0E0,0E0,0E0,0E0,0E0,0E0,0E0,0E0,0E0,0E0,0E0,0E0],"parents":[2147483647,0,0,1,1,2,2,3,3,4,4,5,5,6,6,7,7,8,8,9,9,10,10,11,11,12,12,13,13,14,14,16,16,17,17,18,18,19,19,20,20,21,21,23,23,24,24,25,25,26,26,27,27,28,28,29,29,30,30,32,32,33,33,34,34,35,35,36,36,37,37,38,38,39,39,40,40,41,41,42,42,44,44,45,45,46,46,47,47,48,48,49,49,50,50,51,51,52,52,53,53,54,54,55,55,57,57,58,58],"right_children":[2,4,6,8,10,12,14,16,18,20,22,24,26,28,30,-1,32,34,36,38,40,42,-1,44,46,48,50,52,54,56,58,-1,60,62,64,66,68,70,72,74,76,78,80,-1,82,84,86,88,90,92,94,96,98,100,102,104,-1,106,108,-1,-1,-1,-1,-1,-1,-1,-1,-1,-1,-1,-1,-1,-1,-1,-1,-1,-1,-1,-1,-1,-1,-1,-1,-1,-1,-1,-1,-1,-1,-1,-1,-1,-1,-1,-1,-1,-1,-1,-1,-1,-1,-1,-1,-1,-1,-1,-1,-1,-1],"split_conditions":[1E0,9.335E1,1E0,1E0,6.63835E3,3.5E1,2.7E1,1E0,1E0,6.0969E3,1E0,3.72E1,8E0,2E0,1.8722E3,-3.08657E-1,1E0,1E0,1E0,1E0,1E0,7.1E1,-2.6528862E-1,1.935E1,1E0,7.315E1,1E0,5.025E1,1E0,1E0,1.064E2,-2.6102108E-1,8.055E1,3.72E1,1.3E1,9.9455E2,1E0,1E0,1E0,1E0,1E0,1E0,1.089E2,-1.8229793E-1,1E0,1E0,1E0,1.4365E2,1E0,8.88E1,5.2E1,4.635E1,6.995E1,1E0,1E0,3E1,-3.1676136E-2,5.6E1,1E0,1.8320972E-2,-1.972673E-1,5.702916E-2,-2.8385478E-1,1.3597664E-1,-1.5587395E-1,2.5762028E-1,-6.5528825E-2,-4.2679768E-2,-2.692194E-1,-1.994598E-1,1.721068E-1,2.7340075E-2,-1.753955E-1,-2.5290704E-1,1.654244E-1,3.5493806E-1,3.7705127E-2,1.2760212E-1,-1.6282922E-1,-8.331735E-2,-2.5035995E-1,8.822471E-3,2.3868002E-1,-1.9662888E-1,4.58228E-2,-2.1105117E-1,5.162331E-2,1.3186355E-1,-3.382915E-3,3.1368023E-1,1.0059148E-1,-9.3289986E-2,1.9365098E-2,1.7424528E-1,-1.2602697E-1,2.3253173E-1,-2.375243E-1,3.830149E-1,2.621825E-1,1.1531416E-1,-1.9242615E-2,1.4993817E-1,2.9808336E-1,-5.8527436E-2,-2.9708663E-1,1.0168664E-1,-6.641114E-2,-4.1978367E-2,-3.202018E-1],"split_indices":[19,14,24,20,15,14,4,24,12,15,0,15,4,4,15,0,13,24,0,9,13,4,0,14,25,14,1,14,6,1,14,0,14,15,4,15,9,8,8,22,2,3,14,0,2,0,1,15,25,14,4,14,14,8,1,4,0,4,2,0,0,0,0,0,0,0,0,0,0,0,0,0,0,0,0,0,0,0,0,0,0,0,0,0,0,0,0,0,0,0,0,0,0,0,0,0,0,0,0,0,0,0,0,0,0,0,0,0,0],"split_type":[0,0,0,0,0,0,0,0,0,0,0,0,0,0,0,0,0,0,0,0,0,0,0,0,0,0,0,0,0,0,0,0,0,0,0,0,0,0,0,0,0,0,0,0,0,0,0,0,0,0,0,0,0,0,0,0,0,0,0,0,0,0,0,0,0,0,0,0,0,0,0,0,0,0,0,0,0,0,0,0,0,0,0,0,0,0,0,0,0,0,0,0,0,0,0,0,0,0,0,0,0,0,0,0,0,0,0,0,0],"sum_hessian":[9.844711E2,3.188636E2,6.6560754E2,2.1763553E2,1.0122805E2,3.264162E2,3.3919138E2,1.09186035E2,1.084495E2,5.284892E1,4.837913E1,7.958545E1,2.4683075E2,2.504885E2,8.870287E1,1.0214377E2,7.0422606E0,7.094397E1,3.750553E1,4.180819E1,1.104073E1,2.414552E1,2.4233612E1,2.9489944E1,5.009551E1,8.7070045E1,1.5976071E2,5.204772E1,1.9844078E2,6.166528E0,8.253634E1,3.2642317E0,3.7780287E0,5.640569E1,1.4538282E1,1.8302084E1,1.9203447E1,1.3405137E1,2.8403051E1,3.345218E0,7.6955123E0,1.3283048E1,1.0862473E1,2.2279694E0,2.7261974E1,1.9279846E1,3.0815662E1,5.801815E1,2.9051893E1,1.24053665E2,3.5707043E1,1.535872E1,3.6689003E1,1.1285378E2,8.558699E1,4.578328E0,1.5882001E0,7.7973694E1,4.5626497E0,2.4465497E0,1.3314791E0,1.2220509E0,5.518364E1,1.5021672E0,1.3036115E1,1.3911841E0,1.69109E1,8.086168E0,1.1117278E1,4.265135E0,9.140002E0,1.335099E1,1.5052061E1,2.0539002E0,1.2913178E0,3.0351636E0,4.660349E0,8.4570265E0,4.8260207E0,5.536677E0,5.3257957E0,2.4604599E1,2.6573765E0,9.841466E0,9.43838E0,2.96618E1,1.1538615E0,3.3917435E1,2.4100716E1,1.5609007E1,1.3442887E1,8.296793E1,4.108573E1,2.8945671E1,6.761371E0,1.2431056E1,2.9276636E0,9.879833E0,2.6809168E1,8.6630455E1,2.622333E1,5.9783085E1,2.5803907E1,1.1003478E0,3.4779801E0,6.3139595E1,1.4834096E1,2.1467543E0,2.4158955E0],"tree_param":{"num_deleted":"0","num_feature":"26","num_nodes":"109","size_leaf_vector":"1"}},{"base_weights":[-5.939734E-2,-5.7087207E-1,1.5681264E-1,-7.799663E-1,-2.7059388E-1,-2.4364568E-2,2.772667E-1,-9.4220924E-1,-6.033958E-1,-1.6323443E-1,-7.3716134E-1,1.1034991E-1,-2.2532114E-1,4.4819847E-1,8.1205346E-2,-2.876053E-1,-5.3206235E-1,-7.919892E-1,-3.3989537E-1,-3.2351866E-2,-4.7692192E-1,-5.700338E-1,-8.960578E-1,-1.2403708E-2,3.6420673E-1,-1.2575516E-1,-8.322245E-1,7.7366424E-1,3.6934364E-1,1.9288148E-1,-3.2085022E-1,-2.4212338E-1,1.29372245E-2,4.6671316E-2,-8.219408E-1,-3.474144E-2,-6.8475026E-1,-1.5555283E-1,2.3841627E-1,-2.3749894E-1,-2.727758E-1,-8.0944604E-1,4.2230043E-1,-2.9316044E-1,-8.7451585E-2,-1.8253773E-1,1.8294856E-1,4.8515752E-1,-2.6707897E-1,-5.3414905E-1,1.0104842E-2,-3.268908E-1,-4.9589258E-1,8.12878E-1,-1.836686E-2,2.4032852E-1,5.7302165E-1,-2.0250157E-1,2.8545085E-1,-5.662339E-1,-6.509914E-2,-2.762064E-1,-1.1760146E-1,-5.9180614E-2,3.0394235E-1,-2.2349285E-1,-5.9637066E-2,-4.5012655E-3,-2.1636224E-1,1.860694E-1,-7.906027E-2,-2.2954686E-1,1.2493183E-2,-2.5932595E-1,-4.2954654E-2,2.1192299E-1,-3.066103E-2,-4.047923E-3,-1.6825563E-1,2.0062448E-2,2.6938015E-1,2.7282932E-1,9.004882E-2,4.5721594E-2,-2.3331277E-1,6.7884848E-3,-2.2502206E-1,6.408811E-2,-7.2218254E-2,-2.1884893E-1,3.6845054E-2,2.5219837E-1,9.113808E-3,8.963774E-2,-3.7213337E-2,1.0036749E-1,2.3514065E-1,-1.04804285E-1,9.933012E-2,3.3530504E-2,1.6717091E-1,-5.9084173E-2,-2.7041352E-1,1.142563E-1,-1.5202114E-1],"categories":[],"categories_nodes":[],"categories_segments":[],"categories_sizes":[],"default_left":[0,0,0,0,0,0,0,0,0,0,0,0,0,0,0,0,0,0,0,0,0,0,0,0,0,0,0,0,0,0,0,0,0,0,0,0,0,0,0,0,0,0,0,0,0,0,0,0,0,0,0,0,0,0,0,0,0,0,0,0,0,0,0,0,0,0,0,0,0,0,0,0,0,0,0,0,0,0,0,0,0,0,0,0,0,0,0,0,0,0,0,0,0,0,0,0,0,0,0,0,0,0,0,0,0],"id":4,"left_children":[1,3,5,7,9,11,13,15,17,19,21,23,25,27,29,-1,31,33,35,37,39,41,43,45,47,49,51,53,55,57,59,-1,-1,-1,61,63,65,67,69,71,-1,73,75,-1,-1,77,79,81,83,85,87,-1,89,91,-1,93,95,97,99,101,103,-1,-1,-1,-1,-1,-1,-1,-1,-1,-1,-1,-1,-1,-1,-1,-1,-1,-1,-1,-1,-1,-1,-1,-1,-1,-1,-1,-1,-1,-1,-1,-1,-1,-1,-1,-1,-1,-1,-1,-1,-1,-1,-1,-1],"loss_changes":[1.0316826E2,1.7191177E1,1.4321867E1,4.096977E0,5.6553984E0,7.1411395E0,1.3170504E1,5.1383972E-2,3.7444897E0,3.8857799E0,5.445671E-2,4.9294043E0,6.2900157E0,5.111805E0,8.358051E0,0E0,8.978565E-1,1.4425583E0,3.7061539E0,2.3094764E0,2.6721559E0,3.4593582E0,1.6462135E-1,3.6061552E0,4.0653224E0,5.114873E0,7.354708E-1,1.3627224E0,4.361212E0,5.3732247E0,2.5073824E0,0E0,0E0,0E0,1.5522232E0,3.5818746E0,3.3734274E-1,3.75936E0,4.3217254E0,2.8761668E0,0E0,2.7599478E-1,5.50196E-1,0E0,0E0,3.6989245E0,4.1342416E0,3.1501226E0,2.0319657E0,2.7828288E0,3.6291208E0,0E0,1.2782342E0,8.087406E-1,0E0,2.3066E0,3.0385914E0,2.3203545E0,5.5121956E0,2.3670726E0,4.32522E0,0E0,0E0,0E0,0E0,0E0,0E0,0E0,0E0,0E0,0E0,0E0,0E0,0E0,0E0,0E0,0E0,0E0,0E0,0E0,0E0,0E0,0E0,0E0,0E0,0E0,0E0,0E0,0E0,0E0,0E0,0E0,0E0,0E0,0E0,0E0,0E0,0E0,0E0,0E0,0E0,0E0,0E0,0E0,0E0],"parents":[2147483647,0,0,1,1,2,2,3,3,4,4,5,5,6,6,7,7,8,8,9,9,10,10,11,11,12,12,13,13,14,14,16,16,17,17,18,18,19,19,20,20,21,21,22,22,23,23,24,24,25,25,26,26,27,27,28,28,29,29,30,30,34,34,35,35,36,36,37,37,38,38,39,39,41,41,42,42,45,45,46,46,47,47,48,48,49,49,50,50,52,52,53,53,55,55,56,56,57,57,58,58,59,59,60,60],"right_children":[2,4,6,8,10,12,14,16,18,20,22,24,26,28,30,-1,32,34,36,38,40,42,44,46,48,50,52,54,56,58,60,-1,-1,-1,62,64,66,68,70,72,-1,74,76,-1,-1,78,80,82,84,86,88,-1,90,92,-1,94,96,98,100,102,104,-1,-1,-1,-1,-1,-1,-1,-1,-1,-1,-1,-1,-1,-1,-1,-1,-1,-1,-1,-1,-1,-1,-1,-1,-1,-1,-1,-1,-1,-1,-1,-1,-1,-1,-1,-1,-1,-1,-1,-1,-1,-1,-1,-1],"split_conditions":[1E0,1E0,1E0,1E0,7.1E1,1E1,1.5463E3,1E0,5.895E1,1E0,1.094E2,1E0,6.56E1,1.1695E2,1E0,-2.876053E-1,4.47345E3,3.72E1,3.27355E3,1.057E2,1E0,7.6898E3,1.162E2,1E0,1E0,2.61E1,1E0,1E0,1E0,1E0,9.735E1,-2.4212338E-1,1.29372245E-2,4.6671316E-2,1E0,4.5E1,8.19E1,1E0,1.1015E2,5.2643E3,-2.727758E-1,1.068E2,1E0,-2.9316044E-1,-8.7451585E-2,1.4365E2,5.475E1,1E0,5.1E1,1.98E1,1.22405E3,-3.268908E-1,1E0,1E0,-1.836686E-2,1E0,1E0,1E0,9.545E1,1E0,1.049E2,-2.762064E-1,-1.1760146E-1,-5.9180614E-2,3.0394235E-1,-2.2349285E-1,-5.9637066E-2,-4.5012655E-3,-2.1636224E-1,1.860694E-1,-7.906027E-2,-2.2954686E-1,1.2493183E-2,-2.5932595E-1,-4.2954654E-2,2.1192299E-1,-3.066103E-2,-4.047923E-3,-1.6825563E-1,2.0062448E-2,2.6938015E-1,2.7282932E-1,9.004882E-2,4.5721594E-2,-2.3331277E-1,6.7884848E-3,-2.2502206E-1,6.408811E-2,-7.2218254E-2,-2.1884893E-1,3.6845054E-2,2.5219837E-1,9.113808E-3,8.963774E-2,-3.7213337E-2,1.0036749E-1,2.3514065E-1,-1.04804285E-1,9.933012E-2,3.3530504E-2,1.6717091E-1,-5.9084173E-2,-2.7041352E-1,1.142563E-1,-1.5202114E-1],"split_indices":[19,17,17,20,4,4,15,1,14,23,14,24,14,15,10,0,15,15,15,14,3,15,14,0,8,14,0,10,12,13,14,0,0,0,24,4,14,1,14,15,0,14,0,0,0,15,14,5,14,14,15,0,3,23,0,25,0,3,14,2,14,0,0,0,0,0,0,0,0,0,0,0,0,0,0,0,0,0,0,0,0,0,0,0,0,0,0,0,0,0,0,0,0,0,0,0,0,0,0,0,0,0,0,0,0],"split_type":[0,0,0,0,0,0,0,0,0,0,0,0,0,0,0,0,0,0,0,0,0,0,0,0,0,0,0,0,0,0,0,0,0,0,0,0,0,0,0,0,0,0,0,0,0,0,0,0,0,0,0,0,0,0,0,0,0,0,0,0,0,0,0,0,0,0,0,0,0,0,0,0,0,0,0,0,0,0,0,0,0,0,0,0,0,0,0,0,0,0,0,0,0,0,0,0,0,0,0,0,0,0,0,0,0],"sum_hessian":[9.3111426E2,2.7616565E2,6.5494855E2,1.6185965E2,1.14306015E2,2.618671E2,3.9308148E2,8.2092354E1,7.976729E1,9.402115E1,2.0284864E1,1.570422E2,1.048249E2,2.093117E2,1.8376976E2,7.76364E1,4.45596E0,4.5322956E1,3.4444332E1,6.711945E1,2.69017E1,1.2122184E1,8.162682E0,1.0649649E2,5.054572E1,9.108851E1,1.3736386E1,3.9103687E1,1.7020802E2,1.4422865E2,3.954111E1,2.7418382E0,1.7141216E0,1.2602129E0,4.406274E1,1.8858042E1,1.5586291E1,4.6422485E1,2.0696968E1,1.831067E1,8.591028E0,9.914496E0,2.2076874E0,6.6532683E0,1.5094134E0,5.695739E1,4.95391E1,4.261282E1,7.932898E0,2.2006268E1,6.9082245E1,6.512377E0,7.2240095E0,3.7374607E1,1.729083E0,1.0553761E2,6.46704E1,2.71363E1,1.17092354E2,1.9560007E1,1.9981102E1,3.490447E1,9.158276E0,1.7028635E1,1.829407E0,1.3393425E1,2.1928668E0,3.8005703E1,8.4167795E0,1.1621376E1,9.075591E0,5.73287E0,1.2577801E1,8.884056E0,1.0304407E0,1.2070473E0,1.0006402E0,4.008266E1,1.687473E1,4.3560787E1,5.97831E0,1.1749689E1,3.0863132E1,4.740279E0,3.1926186E0,6.399606E0,1.5606661E1,3.821964E1,3.0862602E1,5.1140537E0,2.1099558E0,3.602131E1,1.3532953E0,9.110046E1,1.44371605E1,3.1556572E1,3.311383E1,2.1550856E1,5.5854435E0,7.230051E1,4.479185E1,1.0061339E1,9.498669E0,1.0010458E1,9.970644E0],"tree_param":{"num_deleted":"0","num_feature":"26","num_nodes":"105","size_leaf_vector":"1"}},{"base_weights":[-5.175608E-2,-4.8122182E-1,1.11500666E-1,-6.9088846E-1,-2.1766189E-1,-6.923454E-2,1.9500895E-1,-8.7742347E-1,-5.071466E-1,-4.8987067E-1,-4.996767E-2,2.3942592E-2,-4.1395086E-1,2.664371E-1,-1.6201846E-1,-8.9617234E-1,-4.673167E-1,-8.912548E-1,-3.6116153E-1,-3.6717114E-1,-8.8248926E-1,-4.9410808E-1,5.213761E-2,-2.409186E-1,1.5678057E-1,-7.436529E-1,-1.6432706E-1,4.6698394E-1,1.7129168E-1,-6.532309E-2,-7.297072E-1,-2.7488506E-1,-5.152805E-1,1.4290462E-2,-2.269483E-1,3.8244132E-2,-2.92114E-1,1.300458E-1,-4.814534E-1,-4.5985958E-1,5.561102E-1,-2.8994286E-1,-7.928156E-2,-8.8654333E-1,1.6258445E-1,1.0195839E-2,2.4025875E-1,-3.2540524E-1,2.9288656E-1,1.1238793E0,1.17094845E-1,-9.537954E-1,1.7301197E-1,-4.3961117E-1,1.7979932E-1,2.78729E-1,7.131901E-1,-5.4733396E-1,2.1023585E-1,-1.0216235E-1,2.3563763E-1,-3.1410053E-1,-4.304825E-1,-2.3316634E-1,-6.272892E-3,2.2332442E-1,-1.5520701E-1,-2.1522962E-1,-1.00395545E-1,-2.3927355E-1,-8.043261E-2,2.897724E-1,-4.5884814E-2,-3.3183966E-2,-2.963823E-1,-8.534165E-2,2.9226384E-1,2.0639682E-2,-2.7194738E-1,-1.16989166E-1,2.9612446E-1,-9.1969624E-2,1.9619924E-1,4.5384708E-1,1.1886846E-1,6.2240485E-2,-4.6872023E-2,7.4879E-2,-3.3810854E-1,-5.40595E-2,1.5867838E-1,-2.1122071E-1,8.217428E-2,1.4697127E-1,-2.0922153E-1,1.1921724E-1,-6.2563285E-2,2.7990642E-1,1.5424323E-1,1.1661524E-1,-2.1416172E-1,3.861578E-2,1.4143154E-1,2.188535E-2,-9.34666E-2,6.260168E-2,-2.0575714E-1],"categories":[],"categories_nodes":[],"categories_segments":[],"categories_sizes":[],"default_left":[0,0,0,0,0,0,0,0,0,0,0,0,0,0,0,0,0,0,0,0,0,0,0,0,0,0,0,0,0,0,0,0,0,0,0,0,0,0,0,0,0,0,0,0,0,0,0,0,0,0,0,0,0,0,0,0,0,0,0,0,0,0,0,0,0,0,0,0,0,0,0,0,0,0,0,0,0,0,0,0,0,0,0,0,0,0,0,0,0,0,0,0,0,0,0,0,0,0,0,0,0,0,0,0,0,0,0],"id":5,"left_children":[1,3,5,7,9,11,13,15,17,19,21,23,25,27,29,31,33,35,37,39,41,43,45,47,49,51,53,55,57,59,61,-1,63,-1,-1,-1,-1,65,67,69,71,-1,-1,73,75,77,-1,79,81,83,85,87,89,91,93,95,97,99,101,103,-1,-1,105,-1,-1,-1,-1,-1,-1,-1,-1,-1,-1,-1,-1,-1,-1,-1,-1,-1,-1,-1,-1,-1,-1,-1,-1,-1,-1,-1,-1,-1,-1,-1,-1,-1,-1,-1,-1,-1,-1,-1,-1,-1,-1,-1,-1],"loss_changes":[6.2211052E1,1.3353416E1,9.720638E0,4.203987E0,4.9844513E0,6.562143E0,1.1268185E1,8.8207245E-2,3.6426125E0,1.6856165E0,3.155465E0,5.7210784E0,3.454751E0,6.925892E0,4.0145254E0,2.5291443E-3,7.764907E-1,1.7025051E0,3.1890726E0,3.1222286E0,2.2332525E-1,3.4932241E0,1.7823619E0,2.5464044E0,4.020501E0,3.7177687E0,2.5438137E0,5.250225E0,7.1284204E0,2.0964901E0,5.625143E-1,0E0,6.8208206E-1,0E0,0E0,0E0,0E0,4.8382425E0,1.2396717E0,1.7928405E0,1.1672068E0,0E0,0E0,5.429144E-1,2.3475747E0,3.017343E0,0E0,4.400896E0,1.9220245E0,5.7456017E-1,2.6270325E0,3.4411135E0,6.3412255E-1,2.9752426E0,3.680224E0,4.0299444E0,1.7212257E0,2.3289902E0,5.0162563E0,2.3161035E0,0E0,0E0,1.3168087E0,0E0,0E0,0E0,0E0,0E0,0E0,0E0,0E0,0E0,0E0,0E0,0E0,0E0,0E0,0E0,0E0,0E0,0E0,0E0,0E0,0E0,0E0,0E0,0E0,0E0,0E0,0E0,0E0,0E0,0E0,0E0,0E0,0E0,0E0,0E0,0E0,0E0,0E0,0E0,0E0,0E0,0E0,0E0,0E0],"parents":[2147483647,0,0,1,1,2,2,3,3,4,4,5,5,6,6,7,7,8,8,9,9,10,10,11,11,12,12,13,13,14,14,15,15,16,16,17,17,18,18,19,19,20,20,21,21,22,22,23,23,24,24,25,25,26,26,27,27,28,28,29,29,30,30,32,32,37,37,38,38,39,39,40,40,43,43,44,44,45,45,47,47,48,48,49,49,50,50,51,51,52,52,53,53,54,54,55,55,56,56,57,57,58,58,59,59,62,62],"right_children":[2,4,6,8,10,12,14,16,18,20,22,24,26,28,30,32,34,36,38,40,42,44,46,48,50,52,54,56,58,60,62,-1,64,-1,-1,-1,-1,66,68,70,72,-1,-1,74,76,78,-1,80,82,84,86,88,90,92,94,96,98,100,102,104,-1,-1,106,-1,-1,-1,-1,-1,-1,-1,-1,-1,-1,-1,-1,-1,-1,-1,-1,-1,-1,-1,-1,-1,-1,-1,-1,-1,-1,-1,-1,-1,-1,-1,-1,-1,-1,-1,-1,-1,-1,-1,-1,-1,-1,-1,-1],"split_conditions":[1E0,1E0,1E0,1E0,1E0,1E0,1E0,1E0,2.405E1,7.8065E3,1E0,3.42E1,1E0,6E0,4.8E1,1E0,6.7E1,3.72E1,2.3E1,7.6898E3,1E0,1E0,7.6898E3,1E0,4.065E1,1.0025E2,1E0,7.315E1,2.98E1,4.47345E3,5.4E1,-2.7488506E-1,3.72975E3,1.4290462E-2,-2.269483E-1,3.8244132E-2,-2.92114E-1,1E0,2.30955E3,1E0,1E0,-2.8994286E-1,-7.928156E-2,2.7222E3,1E0,1.122E2,2.4025875E-1,1E0,5.35E1,1E0,1E0,2E0,1E0,8.325E1,4.4E1,1.4365E2,7.995E1,1.945E1,9.545E1,1.7E1,2.3563763E-1,-3.1410053E-1,5.7E1,-2.3316634E-1,-6.272892E-3,2.2332442E-1,-1.5520701E-1,-2.1522962E-1,-1.00395545E-1,-2.3927355E-1,-8.043261E-2,2.897724E-1,-4.5884814E-2,-3.3183966E-2,-2.963823E-1,-8.534165E-2,2.9226384E-1,2.0639682E-2,-2.7194738E-1,-1.16989166E-1,2.9612446E-1,-9.1969624E-2,1.9619924E-1,4.5384708E-1,1.1886846E-1,6.2240485E-2,-4.6872023E-2,7.4879E-2,-3.3810854E-1,-5.40595E-2,1.5867838E-1,-2.1122071E-1,8.217428E-2,1.4697127E-1,-2.0922153E-1,1.1921724E-1,-6.2563285E-2,2.7990642E-1,1.5424323E-1,1.1661524E-1,-2.1416172E-1,3.861578E-2,1.4143154E-1,2.188535E-2,-9.34666E-2,6.260168E-2,-2.0575714E-1],"split_indices":[19,17,13,20,20,8,10,1,14,15,12,14,0,4,4,24,4,15,4,15,24,24,15,22,14,14,2,14,14,15,4,0,15,0,0,0,0,0,15,13,0,0,0,15,3,14,0,1,15,25,9,4,9,14,4,15,14,14,14,4,0,0,4,0,0,0,0,0,0,0,0,0,0,0,0,0,0,0,0,0,0,0,0,0,0,0,0,0,0,0,0,0,0,0,0,0,0,0,0,0,0,0,0,0,0,0,0],"split_type":[0,0,0,0,0,0,0,0,0,0,0,0,0,0,0,0,0,0,0,0,0,0,0,0,0,0,0,0,0,0,0,0,0,0,0,0,0,0,0,0,0,0,0,0,0,0,0,0,0,0,0,0,0,0,0,0,0,0,0,0,0,0,0,0,0,0,0,0,0,0,0,0,0,0,0,0,0,0,0,0,0,0,0,0,0,0,0,0,0,0,0,0,0,0,0,0,0,0,0,0,0,0,0,0,0,0,0],"sum_hessian":[8.855294E2,2.4336967E2,6.421597E2,1.3463988E2,1.087298E2,2.0299432E2,4.391654E2,6.493871E1,6.9701164E1,4.0716206E1,6.801359E1,1.6053273E2,4.2461597E1,3.661632E2,7.300218E1,6.0966297E1,3.9724185E0,1.7789434E1,5.191173E1,3.2495907E1,8.2203E0,1.1995598E1,5.6017994E1,5.334877E1,1.0718395E2,1.7443373E1,2.5018223E1,1.16563484E2,2.4959973E2,6.3330124E1,9.672057E0,5.657358E1,4.392712E0,1.728923E0,2.2434957E0,1.291205E0,1.6498228E1,1.0195931E1,4.1715797E1,2.9987396E1,2.5085123E0,6.7411633E0,1.4791363E0,7.2894545E0,4.706144E0,5.4006306E1,2.011686E0,4.639597E1,6.952799E0,3.1481206E0,1.04035835E2,1.4157342E1,3.2860312E0,1.3745239E1,1.1272984E1,6.726398E1,4.9299503E1,1.2160017E1,2.3743971E2,6.154511E1,1.7850136E0,3.4813857E0,6.190671E0,2.4973557E0,1.8953567E0,5.1545467E0,5.041385E0,1.450784E1,2.7207958E1,9.715913E0,2.0271482E1,1.3601701E0,1.148342E0,1.0841385E0,6.205316E0,3.453442E0,1.2527015E0,5.1630554E1,2.375753E0,4.4890766E1,1.5052058E0,2.6705976E0,4.2822013E0,1.34835E0,1.7997707E0,7.836634E1,2.5669493E1,1.7260746E0,1.2431268E1,1.8970791E0,1.3889523E0,1.0038039E1,3.7072003E0,8.654873E0,2.6181107E0,5.423984E1,1.3024136E1,2.1674355E1,2.762515E1,1.6351786E0,1.0524838E1,1.8210185E2,5.5337875E1,3.387083E1,2.7674276E1,1.8195517E0,4.371119E0],"tree_param":{"num_deleted":"0","num_feature":"26","num_nodes":"107","size_leaf_vector":"1"}},{"base_weights":[-4.388168E-2,-4.0103424E-1,7.9682454E-2,-6.539236E-1,-2.0747054E-1,-2.3156855E-2,1.7842348E-1,-7.87516E-1,-4.3919864E-1,-4.9909946E-1,-2.2486748E-2,2.179756E-2,-3.851507E-1,2.3472425E-1,-9.252267E-2,-1.4434457E-1,-8.368993E-1,2.1613519E-1,-6.947453E-1,-8.5520476E-1,-3.0719954E-1,3.4796816E-1,-1.2230023E-1,-3.0819504E-2,3.181791E-1,-4.7964838E-1,5.678092E-1,7.125271E-3,3.1438902E-1,-3.8204458E-1,1.3938239E-1,2.5919998E-1,-2.3908155E-1,2.3967711E-2,-8.628757E-1,-6.2379265E-1,5.4300654E-1,-3.0259258E-1,-5.063534E-1,-9.4206566E-1,-3.0599764E-1,1.9952227E-1,-4.7383004E-1,5.015752E-1,-4.8807237E-1,-6.602087E-1,-1.7515194E-2,-1.7789139E-1,1.0684702E-1,2.0558028E-1,3.9180738E-1,-2.1591839E-1,-7.0437586E-1,2.7830896E-1,1.18809076E-4,-2.2197616E-1,2.0761344E-1,3.7025937E-1,-6.9974237E-3,-4.1749768E-2,-7.3101586E-1,4.958634E-1,-3.5913354E-1,-2.6851067E-1,-1.535688E-1,-4.377738E-2,-2.2608477E-1,2.7555183E-1,-1.04079405E-2,-4.495581E-2,-2.4645625E-1,-1.246021E-1,-3.004687E-1,8.0901176E-2,-2.0092201E-1,1.3929707E-1,-1.3355236E-1,-8.4137574E-2,-2.7824536E-1,5.03765E-2,3.003728E-1,-3.393667E-2,-1.8632397E-1,-2.82883E-1,-2.1288654E-2,3.9110728E-2,-1.209855E-1,-8.045481E-2,3.199787E-2,-1.3462447E-2,8.240018E-2,9.222246E-2,-2.1068607E-1,-2.1487828E-1,2.98033E-2,5.700833E-2,-2.503953E-1,-1.47191575E-2,-3.4197244E-1,-9.782549E-2,1.6027844E-1,9.389253E-2,2.2227268E-1,-4.1102603E-2,1.7936598E-1,5.6289796E-2,-2.1391778E-1,-2.758973E-1,-1.4093432E-2,2.4739362E-1,9.310051E-3,-1.6264743E-1,1.22326136E-1],"categories":[],"categories_nodes":[],"categories_segments":[],"categories_sizes":[],"default_left":[0,0,0,0,0,0,0,0,0,0,0,0,0,0,0,0,0,0,0,0,0,0,0,0,0,0,0,0,0,0,0,0,0,0,0,0,0,0,0,0,0,0,0,0,0,0,0,0,0,0,0,0,0,0,0,0,0,0,0,0,0,0,0,0,0,0,0,0,0,0,0,0,0,0,0,0,0,0,0,0,0,0,0,0,0,0,0,0,0,0,0,0,0,0,0,0,0,0,0,0,0,0,0,0,0,0,0,0,0,0,0,0,0],"id":6,"left_children":[1,3,5,7,9,11,13,15,17,19,21,23,25,27,29,31,33,35,37,39,41,43,45,47,49,51,53,55,57,59,61,-1,-1,-1,63,65,67,-1,69,71,73,75,77,79,81,83,85,87,89,91,-1,93,95,-1,-1,97,99,101,103,105,107,109,111,-1,-1,-1,-1,-1,-1,-1,-1,-1,-1,-1,-1,-1,-1,-1,-1,-1,-1,-1,-1,-1,-1,-1,-1,-1,-1,-1,-1,-1,-1,-1,-1,-1,-1,-1,-1,-1,-1,-1,-1,-1,-1,-1,-1,-1,-1,-1,-1,-1,-1],"loss_changes":[3.757837E1,1.0577278E1,6.4312515E0,2.3626633E0,6.755443E0,5.0680485E0,4.94917E0,1.6879272E0,6.5934987E0,3.0608969E0,2.9191968E0,4.3376403E0,3.3701458E0,4.8520765E0,3.8326697E0,4.155795E0,1.3234482E0,3.5116334E0,1.1402254E0,4.974594E-1,2.8948574E0,2.398725E0,3.4844277E0,4.8092227E0,4.3952465E0,1.7348981E0,7.268766E-1,3.28141E0,3.5630703E0,2.9742262E0,5.8626833E0,0E0,0E0,0E0,1.210022E-1,1.19754314E-1,1.9525018E0,0E0,2.0628119E0,1.4613152E-2,9.6171576E-1,1.7279423E0,1.9552875E0,2.27628E0,8.4846735E-2,1.6132908E0,3.0727189E0,2.977149E0,3.1397574E0,3.8051424E0,0E0,2.6092126E0,2.1101027E0,0E0,0E0,5.2384024E0,6.812937E0,3.3551617E0,2.4684873E0,2.2697494E0,1.5609207E0,2.8889728E0,2.174433E0,0E0,0E0,0E0,0E0,0E0,0E0,0E0,0E0,0E0,0E0,0E0,0E0,0E0,0E0,0E0,0E0,0E0,0E0,0E0,0E0,0E0,0E0,0E0,0E0,0E0,0E0,0E0,0E0,0E0,0E0,0E0,0E0,0E0,0E0,0E0,0E0,0E0,0E0,0E0,0E0,0E0,0E0,0E0,0E0,0E0,0E0,0E0,0E0,0E0,0E0],"parents":[2147483647,0,0,1,1,2,2,3,3,4,4,5,5,6,6,7,7,8,8,9,9,10,10,11,11,12,12,13,13,14,14,15,15,16,16,17,17,18,18,19,19,20,20,21,21,22,22,23,23,24,24,25,25,26,26,27,27,28,28,29,29,30,30,34,34,35,35,36,36,38,38,39,39,40,40,41,41,42,42,43,43,44,44,45,45,46,46,47,47,48,48,49,49,51,51,52,52,55,55,56,56,57,57,58,58,59,59,60,60,61,61,62,62],"right_children":[2,4,6,8,10,12,14,16,18,20,22,24,26,28,30,32,34,36,38,40,42,44,46,48,50,52,54,56,58,60,62,-1,-1,-1,64,66,68,-1,70,72,74,76,78,80,82,84,86,88,90,92,-1,94,96,-1,-1,98,100,102,104,106,108,110,112,-1,-1,-1,-1,-1,-1,-1,-1,-1,-1,-1,-1,-1,-1,-1,-1,-1,-1,-1,-1,-1,-1,-1,-1,-1,-1,-1,-1,-1,-1,-1,-1,-1,-1,-1,-1,-1,-1,-1,-1,-1,-1,-1,-1,-1,-1,-1,-1,-1,-1],"split_conditions":[1E0,1E0,1E0,2.0831E3,1E0,4.4E1,3.08825E3,1E0,4.9E1,1E0,3.4E1,1E0,6.82215E3,1E0,4.12465E3,1E0,3.72E1,3.6E1,1E0,1.0975E2,1E0,1E0,1E0,1E0,3.7E1,5.2E1,1.0325E2,1E0,1E0,1E0,5.6E1,2.5919998E-1,-2.3908155E-1,2.3967711E-2,1E0,3E1,1E0,-3.0259258E-1,1E0,1E0,6.8E1,1E0,7.2E1,1E0,1E0,1E0,1E0,1E0,6.11E1,1E0,3.9180738E-1,4.7E1,3.13275E3,2.7830896E-1,1.18809076E-4,1E0,5.5E1,9.545E1,1.93275E3,3.83875E3,1.0325E2,1E0,6.82215E3,-2.6851067E-1,-1.535688E-1,-4.377738E-2,-2.2608477E-1,2.7555183E-1,-1.04079405E-2,-4.495581E-2,-2.4645625E-1,-1.246021E-1,-3.004687E-1,8.0901176E-2,-2.0092201E-1,1.3929707E-1,-1.3355236E-1,-8.4137574E-2,-2.7824536E-1,5.03765E-2,3.003728E-1,-3.393667E-2,-1.8632397E-1,-2.82883E-1,-2.1288654E-2,3.9110728E-2,-1.209855E-1,-8.045481E-2,3.199787E-2,-1.3462447E-2,8.240018E-2,9.222246E-2,-2.1068607E-1,-2.1487828E-1,2.98033E-2,5.700833E-2,-2.503953E-1,-1.47191575E-2,-3.4197244E-1,-9.782549E-2,1.6027844E-1,9.389253E-2,2.2227268E-1,-4.1102603E-2,1.7936598E-1,5.6289796E-2,-2.1391778E-1,-2.758973E-1,-1.4093432E-2,2.4739362E-1,9.310051E-3,-1.6264743E-1,1.22326136E-1],"split_indices":[19,11,24,15,20,4,15,5,4,13,4,1,15,13,15,10,15,4,2,14,10,23,12,0,4,4,14,0,3,8,4,0,0,0,24,4,6,0,0,9,4,23,4,3,0,24,3,6,14,3,0,4,15,0,0,10,14,14,15,15,14,0,15,0,0,0,0,0,0,0,0,0,0,0,0,0,0,0,0,0,0,0,0,0,0,0,0,0,0,0,0,0,0,0,0,0,0,0,0,0,0,0,0,0,0,0,0,0,0,0,0,0,0],"split_type":[0,0,0,0,0,0,0,0,0,0,0,0,0,0,0,0,0,0,0,0,0,0,0,0,0,0,0,0,0,0,0,0,0,0,0,0,0,0,0,0,0,0,0,0,0,0,0,0,0,0,0,0,0,0,0,0,0,0,0,0,0,0,0,0,0,0,0,0,0,0,0,0,0,0,0,0,0,0,0,0,0,0,0,0,0,0,0,0,0,0,0,0,0,0,0,0,0,0,0,0,0,0,0,0,0,0,0,0,0,0,0,0,0],"sum_hessian":[8.4978986E2,2.1785405E2,6.319358E2,9.342142E1,1.2443263E2,3.0991898E2,3.220168E2,5.5946445E1,3.7474968E1,4.763596E1,7.679667E1,2.7651907E2,3.33999E1,2.6672653E2,5.529028E1,4.2690473E0,5.16774E1,1.0556834E1,2.6918135E1,1.5470715E1,3.2165245E1,1.5772244E1,6.1024426E1,2.355904E2,4.0928703E1,3.083855E1,2.5613453E0,6.943708E1,1.9728944E2,2.4302456E1,3.0987822E1,1.5500566E0,2.7189908E0,1.3666968E0,5.03107E1,2.702955E0,7.8538795E0,8.463084E0,1.8455051E1,1.2740411E1,2.7303035E0,7.9108953E0,2.4254349E1,1.3662138E1,2.110107E0,9.0852375E0,5.193919E1,1.1376296E2,1.2182742E2,3.782532E1,3.1033814E0,1.5090191E1,1.5748361E1,1.1787525E0,1.3825928E0,3.2356056E1,3.7081024E1,1.6794205E2,2.93474E1,1.2871054E1,1.1431403E1,1.8070913E1,1.2916908E1,4.4667744E1,5.6429577E0,1.0312047E0,1.6717502E0,4.402414E0,3.4514656E0,9.352017E0,9.103034E0,2.1030428E0,1.0637368E1,1.1573201E0,1.5729833E0,5.8059516E0,2.1049433E0,1.814024E1,6.114109E0,8.993072E0,4.6690664E0,1.0370741E0,1.0730329E0,5.73378E0,3.3514574E0,3.802458E1,1.3914611E1,8.640362E1,2.7359346E1,6.436727E1,5.7460148E1,3.4605324E1,3.2199955E0,5.341281E0,9.74891E0,1.9438936E0,1.3804467E1,2.8113686E1,4.2423697E0,1.407922E1,2.3001804E1,1.470584E2,2.088365E1,2.4792171E1,4.5552297E0,1.0130142E1,2.7409115E0,8.690351E0,2.7410522E0,1.0131003E1,7.9399095E0,1.0664719E1,2.2521899E0],"tree_param":{"num_deleted":"0","num_feature":"26","num_nodes":"113","size_leaf_vector":"1"}},{"base_weights":[-3.8624145E-2,1.7112754E-2,-5.728777E-1,1.12556614E-1,-9.086638E-2,-7.543897E-1,-2.8595468E-1,1.5297641E-1,-1.13969184E-1,-7.76154E-1,-5.8702182E-2,-7.9291815E-1,-2.8001603E-1,6.5475714E-1,-4.030443E-1,2.0782577E-1,-4.5786105E-2,1.23705536E-1,-3.2938167E-1,-8.670192E-1,-2.7377447E-1,-1.6432782E-1,5.4839063E-2,-6.3712025E-1,-2.968354E-1,-1.9992563E-1,9.680191E-2,3.2633343E-1,1.0829327E-2,-7.412053E-1,-1.9137566E-1,2.3697233E-1,-7.662401E-2,-3.9801314E-1,1.0693091E-1,2.7294832E-1,-1.6771589E-1,-4.5438004E-1,3.090677E-1,-3.6865093E-2,-2.7688587E-1,-2.0383011E-1,1.1724486E-1,-3.2252932E-1,-3.5251178E-2,-1.736062E-1,1.7356843E-1,-7.094454E-1,-4.71843E-2,1.96436E-1,-1.6981566E-1,-8.899844E-1,5.6124385E-3,7.550461E-2,-2.6155925E-1,6.334321E-2,1.9453824E-1,5.7052087E-2,-2.183369E-1,-2.619517E-1,-1.9431384E-2,5.0165515E-2,-2.4852568E-1,-1.3228563E-2,2.845797E-1,-2.112206E-1,1.1139135E-1,-1.599644E-1,1.876144E-1,-1.2276561E-1,2.0305026E-1,-5.997842E-2,-2.0438321E-1,2.9061615E-1,-1.9917177E-2,-1.4149247E-1,2.4028191E-2,1.0884683E-1,9.701066E-3,-4.5502804E-2,-2.2041376E-1,-2.0610777E-1,2.385347E-1,-8.72708E-2,-2.9188815E-1,2.2720571E-1,-7.412752E-2],"categories":[],"categories_nodes":[],"categories_segments":[],"categories_sizes":[],"default_left":[0,0,0,0,0,0,0,0,0,0,0,0,0,0,0,0,0,0,0,0,0,0,0,0,0,0,0,0,0,0,0,0,0,0,0,0,0,0,0,0,0,0,0,0,0,0,0,0,0,0,0,0,0,0,0,0,0,0,0,0,0,0,0,0,0,0,0,0,0,0,0,0,0,0,0,0,0,0,0,0,0,0,0,0,0,0,0],"id":7,"left_children":[1,3,5,7,9,11,13,15,17,19,21,23,25,27,29,31,33,35,37,39,41,43,45,47,-1,-1,49,-1,-1,51,53,55,57,59,61,63,65,67,69,-1,-1,-1,-1,71,73,75,77,79,81,-1,-1,83,-1,85,-1,-1,-1,-1,-1,-1,-1,-1,-1,-1,-1,-1,-1,-1,-1,-1,-1,-1,-1,-1,-1,-1,-1,-1,-1,-1,-1,-1,-1,-1,-1,-1,-1],"loss_changes":[2.4512043E1,7.6992545E0,3.8341942E0,3.6475854E0,7.6823645E0,6.373615E-1,3.7602751E0,3.6820402E0,3.1436214E0,4.764061E-1,4.038234E0,6.844826E-1,8.038956E-1,1.004085E0,1.9230366E0,2.2085047E0,4.005598E0,1.3305781E0,2.69935E0,4.1850567E-1,1.3052157E0,3.547886E0,4.442172E0,1.108388E0,0E0,0E0,1.6444827E0,0E0,0E0,1.2328959E0,3.5328202E0,2.4125576E0,4.535581E0,3.5052385E0,3.080977E0,4.3081656E0,3.3329206E0,2.6504574E0,1.8210139E0,0E0,0E0,0E0,0E0,3.3029299E0,3.1002386E0,4.281853E0,2.8625865E0,2.2353172E-1,2.6987412E0,0E0,0E0,1.6518497E-1,0E0,3.4057927E0,0E0,0E0,0E0,0E0,0E0,0E0,0E0,0E0,0E0,0E0,0E0,0E0,0E0,0E0,0E0,0E0,0E0,0E0,0E0,0E0,0E0,0E0,0E0,0E0,0E0,0E0,0E0,0E0,0E0,0E0,0E0,0E0,0E0],"parents":[2147483647,0,0,1,1,2,2,3,3,4,4,5,5,6,6,7,7,8,8,9,9,10,10,11,11,12,12,13,13,14,14,15,15,16,16,17,17,18,18,19,19,20,20,21,21,22,22,23,23,26,26,29,29,30,30,31,31,32,32,33,33,34,34,35,35,36,36,37,37,38,38,43,43,44,44,45,45,46,46,47,47,48,48,51,51,53,53],"right_children":[2,4,6,8,10,12,14,16,18,20,22,24,26,28,30,32,34,36,38,40,42,44,46,48,-1,-1,50,-1,-1,52,54,56,58,60,62,64,66,68,70,-1,-1,-1,-1,72,74,76,78,80,82,-1,-1,84,-1,86,-1,-1,-1,-1,-1,-1,-1,-1,-1,-1,-1,-1,-1,-1,-1,-1,-1,-1,-1,-1,-1,-1,-1,-1,-1,-1,-1,-1,-1,-1,-1,-1,-1],"split_conditions":[1E0,1.8E1,9.335E1,1E0,2.48E1,1E0,9.65E1,1E0,3.72E1,9.214E2,1E0,6.7E1,1E0,5.6458E3,1.057E2,1E0,1E0,2.025E1,1E0,3.7525E2,1E0,1E0,1E0,4.47345E3,-2.968354E-1,-1.9992563E-1,8.055E1,3.2633343E-1,1.0829327E-2,7.3488E3,7.2E1,1.6E1,7.5955E2,1E0,1.7E1,2.005E1,2.05E1,3.4035E2,1.3475E2,-3.6865093E-2,-2.7688587E-1,-2.0383011E-1,1.1724486E-1,1E0,1.1905E3,1E0,3.27355E3,1.94E1,6.4E1,1.96436E-1,-1.6981566E-1,9.855E1,5.6124385E-3,1.089E2,-2.6155925E-1,6.334321E-2,1.9453824E-1,5.7052087E-2,-2.183369E-1,-2.619517E-1,-1.9431384E-2,5.0165515E-2,-2.4852568E-1,-1.3228563E-2,2.845797E-1,-2.112206E-1,1.1139135E-1,-1.599644E-1,1.876144E-1,-1.2276561E-1,2.0305026E-1,-5.997842E-2,-2.0438321E-1,2.9061615E-1,-1.9917177E-2,-1.4149247E-1,2.4028191E-2,1.0884683E-1,9.701066E-3,-4.5502804E-2,-2.2041376E-1,-2.0610777E-1,2.385347E-1,-8.72708E-2,-2.9188815E-1,2.2720571E-1,-7.412752E-2],"split_indices":[21,4,14,18,14,24,14,8,15,15,24,4,9,15,14,23,13,14,22,15,13,12,6,15,0,0,14,0,0,15,4,4,15,0,4,15,14,15,15,0,0,0,0,25,15,11,15,14,4,0,0,14,0,14,0,0,0,0,0,0,0,0,0,0,0,0,0,0,0,0,0,0,0,0,0,0,0,0,0,0,0,0,0,0,0,0,0],"split_type":[0,0,0,0,0,0,0,0,0,0,0,0,0,0,0,0,0,0,0,0,0,0,0,0,0,0,0,0,0,0,0,0,0,0,0,0,0,0,0,0,0,0,0,0,0,0,0,0,0,0,0,0,0,0,0,0,0,0,0,0,0,0,0,0,0,0,0,0,0,0,0,0,0,0,0,0,0,0,0,0,0,0,0,0,0,0,0],"sum_hessian":[8.218402E2,7.450768E2,7.676341E1,3.9547235E2,3.4960443E2,4.602074E1,3.0742674E1,3.358671E2,5.960527E1,1.4636185E1,3.3496826E2,4.194267E1,4.078073E0,2.8946643E0,2.7848011E1,2.631924E2,7.267465E1,2.85407E1,3.106457E1,1.1779758E1,2.8564262E0,1.7330139E2,1.6166685E2,2.5762075E1,1.6180592E1,1.633984E0,2.444089E0,1.2567437E0,1.6379207E0,9.757593E0,1.8090418E1,2.3888196E2,2.4310476E1,2.1494183E1,5.118047E1,1.8916546E1,9.624155E0,2.621951E1,4.8450603E0,1.0470365E0,1.0732721E1,1.75988E0,1.0965463E0,7.719247E1,9.6108925E1,5.512997E1,1.0653689E2,2.2768158E1,2.9939184E0,1.3336256E0,1.1104635E0,8.016853E0,1.74074E0,1.3632816E1,4.4576006E0,2.2619714E2,1.26848135E1,1.774705E1,6.5634274E0,8.192507E0,1.3301677E1,4.885291E1,2.3275638E0,1.3511244E1,5.405303E0,4.670534E0,4.9536204E0,2.490718E1,1.3123282E0,1.6024989E0,3.2425616E0,5.8691936E1,1.8500532E1,1.9854822E0,9.412344E1,2.4954967E1,3.0175003E1,4.485753E1,6.167936E1,1.2901894E0,2.1477968E1,1.806205E0,1.1877134E0,1.5234559E0,6.4933977E0,3.945606E0,9.68721E0],"tree_param":{"num_deleted":"0","num_feature":"26","num_nodes":"87","size_leaf_vector":"1"}},{"base_weights":[-3.3091635E-2,9.770912E-3,-4.978553E-1,2.2287045E-1,-2.2555958E-2,-6.852137E-1,-2.3454884E-1,1.502358E-1,6.3861233E-1,3.815054E-3,-3.5573432E-1,-5.47484E-1,-8.951341E-1,4.9825418E-1,-3.4129474E-1,1.9342054E-1,-5.3745055E-1,7.943487E-1,-7.7520445E-2,3.0400652E-2,-2.6535022E-1,-5.4407373E-2,-5.334904E-1,-6.386629E-1,-6.5423297E-3,-2.8615057E-1,-7.630732E-2,2.3811738E-1,8.761278E-3,-6.627992E-1,-1.5770678E-1,3.6579777E-2,3.3887315E-1,-2.0247792E-1,-2.6588812E-1,8.814705E-1,2.2871327E-2,-1.4296139E-2,1.7385316E-1,-5.7593715E-1,-9.93133E-3,7.9122436E-1,-2.661643E-1,-6.449013E-1,8.1142355E-3,-6.613509E-1,-3.0551217E-2,2.635078E-1,-2.1872087E-1,-2.7633843E-1,-1.4064553E-1,5.8269203E-2,-2.4704283E-1,2.7809491E-2,-2.7792603E-1,2.54378E-1,7.21637E-2,-2.0861559E-1,6.872444E-2,2.9680312E-1,1.3841766E-1,-2.843996E-2,2.6243372E-2,1.3982295E-3,9.039017E-2,-1.11265615E-1,-2.4652816E-1,2.886019E-1,-5.2951027E-2,-6.377215E-2,3.8139942E-1,-2.4758165E-1,-6.141218E-3,-2.0815314E-1,-2.4762379E-2,9.176775E-2,-1.7919244E-1,-4.8236433E-2,-2.0590748E-1,8.333748E-2,-1.8566017E-1,-6.1549664E-2,1.5158686E-1],"categories":[],"categories_nodes":[],"categories_segments":[],"categories_sizes":[],"default_left":[0,0,0,0,0,0,0,0,0,0,0,0,0,0,0,0,0,0,0,0,0,0,0,0,0,0,0,0,0,0,0,0,0,0,0,0,0,0,0,0,0,0,0,0,0,0,0,0,0,0,0,0,0,0,0,0,0,0,0,0,0,0,0,0,0,0,0,0,0,0,0,0,0,0,0,0,0,0,0,0,0,0,0],"id":8,"left_children":[1,3,5,7,9,11,13,15,17,19,21,23,25,27,29,31,33,35,-1,37,39,41,43,45,47,-1,-1,-1,-1,49,51,53,55,57,-1,59,-1,61,63,65,67,69,71,73,75,77,-1,-1,-1,-1,79,81,-1,-1,-1,-1,-1,-1,-1,-1,-1,-1,-1,-1,-1,-1,-1,-1,-1,-1,-1,-1,-1,-1,-1,-1,-1,-1,-1,-1,-1,-1,-1],"loss_changes":[1.5946638E1,5.0591025E0,3.1736908E0,2.8249683E0,5.6064005E0,6.3663864E-1,2.4870584E0,2.5881348E0,2.171977E0,4.245329E0,2.477687E0,1.283431E0,2.7887154E-1,5.5510783E-1,1.4565253E0,1.7999082E0,4.2902195E-1,6.986437E-1,0E0,3.4636304E0,4.225002E0,3.5193868E0,1.7745285E0,2.0461845E-1,3.69396E0,0E0,0E0,0E0,0E0,1.1250076E0,2.65732E0,2.2122006E0,1.8530736E0,1.0000739E0,0E0,3.3927917E-2,0E0,3.3879123E0,2.765399E0,9.074373E-1,5.072384E0,2.1749184E0,2.1158524E0,6.124172E-1,1.2626276E0,1.5555E-1,0E0,0E0,0E0,0E0,1.0240935E0,1.8271941E0,0E0,0E0,0E0,0E0,0E0,0E0,0E0,0E0,0E0,0E0,0E0,0E0,0E0,0E0,0E0,0E0,0E0,0E0,0E0,0E0,0E0,0E0,0E0,0E0,0E0,0E0,0E0,0E0,0E0,0E0,0E0],"parents":[2147483647,0,0,1,1,2,2,3,3,4,4,5,5,6,6,7,7,8,8,9,9,10,10,11,11,12,12,13,13,14,14,15,15,16,16,17,17,19,19,20,20,21,21,22,22,23,23,24,24,29,29,30,30,31,31,32,32,33,33,35,35,37,37,38,38,39,39,40,40,41,41,42,42,43,43,44,44,45,45,50,50,51,51],"right_children":[2,4,6,8,10,12,14,16,18,20,22,24,26,28,30,32,34,36,-1,38,40,42,44,46,48,-1,-1,-1,-1,50,52,54,56,58,-1,60,-1,62,64,66,68,70,72,74,76,78,-1,-1,-1,-1,80,82,-1,-1,-1,-1,-1,-1,-1,-1,-1,-1,-1,-1,-1,-1,-1,-1,-1,-1,-1,-1,-1,-1,-1,-1,-1,-1,-1,-1,-1,-1,-1],"split_conditions":[1E0,2E0,9.335E1,7.575E1,1E0,6.8E1,9.65E1,1E0,1E0,5.9E1,1.99E1,4.47345E3,1E0,5.6458E3,1.057E2,1E0,4.895E1,1E0,-7.7520445E-2,1E0,9.915E1,4E0,1E0,7.98E1,8.07E1,-2.8615057E-1,-7.630732E-2,2.3811738E-1,8.761278E-3,7E1,7.9198E3,7.105E1,1E0,2E1,-2.6588812E-1,8.925E1,2.2871327E-2,1E0,1E0,1E0,1.0025E2,1.95E1,1E0,4.5E1,2.6E1,1.94E1,-3.0551217E-2,2.635078E-1,-2.1872087E-1,-2.7633843E-1,1E0,1E0,-2.4704283E-1,2.7809491E-2,-2.7792603E-1,2.54378E-1,7.21637E-2,-2.0861559E-1,6.872444E-2,2.9680312E-1,1.3841766E-1,-2.843996E-2,2.6243372E-2,1.3982295E-3,9.039017E-2,-1.11265615E-1,-2.4652816E-1,2.886019E-1,-5.2951027E-2,-6.377215E-2,3.8139942E-1,-2.4758165E-1,-6.141218E-3,-2.0815314E-1,-2.4762379E-2,9.176775E-2,-1.7919244E-1,-4.8236433E-2,-2.0590748E-1,8.333748E-2,-1.8566017E-1,-6.1549664E-2,1.5158686E-1],"split_indices":[21,4,14,14,18,4,14,23,3,4,14,15,24,15,14,13,14,8,0,1,14,4,22,14,14,0,0,0,0,4,15,14,5,14,0,14,0,11,6,19,14,14,19,4,4,14,0,0,0,0,10,22,0,0,0,0,0,0,0,0,0,0,0,0,0,0,0,0,0,0,0,0,0,0,0,0,0,0,0,0,0,0,0],"split_type":[0,0,0,0,0,0,0,0,0,0,0,0,0,0,0,0,0,0,0,0,0,0,0,0,0,0,0,0,0,0,0,0,0,0,0,0,0,0,0,0,0,0,0,0,0,0,0,0,0,0,0,0,0,0,0,0,0,0,0,0,0,0,0,0,0,0,0,0,0,0,0,0,0,0,0,0,0,0,0,0,0,0,0],"sum_hessian":[7.992514E2,7.3266113E2,6.659025E1,9.572767E1,6.369335E2,3.7969982E1,2.8620268E1,8.26493E1,1.3078369E1,5.9113385E2,4.57996E1,2.5105928E1,1.2864056E1,3.1726413E0,2.5447626E1,7.844209E1,4.2072034E0,1.1241169E1,1.8371999E0,5.3880304E2,5.233081E1,1.747781E1,2.832179E1,2.1329983E1,3.7759454E0,1.13369255E1,1.5271305E0,1.5218071E0,1.6508341E0,8.300791E0,1.7146835E1,3.834566E1,4.0096436E1,2.9525135E0,1.25469E0,9.822063E0,1.4191055E0,4.1149133E2,1.2731172E2,2.3048807E1,2.9282005E1,2.9521594E0,1.452565E1,2.3331633E1,4.990159E0,2.02425E1,1.0874816E0,1.6003141E0,2.1756313E0,5.0421543E0,3.2586362E0,1.36358385E1,3.5109963E0,3.70881E1,1.2575579E0,5.2569685E0,3.4839466E1,1.09291E0,1.8596034E0,6.736928E0,3.0851357E0,2.2979276E2,1.8169858E2,5.5143166E1,7.216856E1,1.3934331E1,9.114476E0,3.5855033E0,2.5696503E1,1.1354402E0,1.816719E0,3.7143078E0,1.0811342E1,2.124855E1,2.0830822E0,3.6765738E0,1.3135852E0,1.3166772E0,1.8925823E1,1.9614826E0,1.2971536E0,8.92013E0,4.7157087E0],"tree_param":{"num_deleted":"0","num_feature":"26","num_nodes":"83","size_leaf_vector":"1"}},{"base_weights":[-2.7335275E-2,5.81396E-3,-4.2748597E-1,6.96261E-2,-6.7155644E-2,-6.6837E-1,-2.4096055E-1,4.917247E-2,4.2417473E-1,-6.5240467E-1,-4.5778364E-2,-7.768147E-1,-3.6476576E-1,-5.682292E-1,-1.04505114E-1,8.0822974E-2,-1.0500481E-1,9.798148E-1,3.7585646E-2,-7.592185E-1,-1.6532625E-1,-2.0161465E-2,-2.954293E-1,-2.9150862E-1,-2.911069E-1,-5.802717E-1,6.983274E-2,-6.944978E-1,1.3606468E-2,4.5169133E-1,-2.8673247E-1,5.006206E-2,4.0391555E-1,2.935926E-1,-2.1303125E-1,5.6003004E-1,3.5297918E-1,4.2308232E-1,-6.565708E-1,-6.7444794E-2,-8.1621855E-1,-1.7797458E-1,1.1413028E-1,-7.939104E-3,-5.79791E-1,-4.2046082E-1,3.5836673E-1,-5.620243E-1,1.20055296E-1,4.3850727E-4,-2.4576251E-1,-1.7717975E-1,-2.659692E-1,7.1863097E-1,-1.585849E-1,-7.7408504E-1,-3.9828833E-2,2.7837643E-2,-8.6681366E-2,-2.4385943E-1,1.5909298E-1,1.472913E-1,-1.7860621E-1,-1.724052E-1,-1.7601812E-2,2.511241E-1,5.2974608E-2,2.0848693E-1,-8.4832326E-2,-3.2929328E-1,-5.5226586E-3,-2.703192E-1,-9.2899814E-2,-5.796013E-3,2.7411315E-1,-2.4200693E-1,7.259753E-2,-2.4248879E-1,-6.591018E-2,-1.250317E-1,2.2989649E-1,-5.8930838E-3,-2.1932241E-1,-5.8869053E-2,1.3293676E-1,-1.8743345E-1,1.4226565E-1,2.6984222E-2,4.2582527E-1,-8.421191E-2,-2.6002118E-1,1.23722814E-1,-1.10531166E-1],"categories":[],"categories_nodes":[],"categories_segments":[],"categories_sizes":[],"default_left":[0,0,0,0,0,0,0,0,0,0,0,0,0,0,0,0,0,0,0,0,0,0,0,0,0,0,0,0,0,0,0,0,0,0,0,0,0,0,0,0,0,0,0,0,0,0,0,0,0,0,0,0,0,0,0,0,0,0,0,0,0,0,0,0,0,0,0,0,0,0,0,0,0,0,0,0,0,0,0,0,0,0,0,0,0,0,0,0,0,0,0,0,0],"id":9,"left_children":[1,3,5,7,9,11,13,15,17,19,21,23,25,27,29,31,33,35,37,39,41,43,45,47,-1,49,-1,51,-1,53,55,57,59,61,63,65,-1,67,69,-1,71,-1,-1,73,75,77,79,81,83,-1,-1,85,-1,87,-1,89,91,-1,-1,-1,-1,-1,-1,-1,-1,-1,-1,-1,-1,-1,-1,-1,-1,-1,-1,-1,-1,-1,-1,-1,-1,-1,-1,-1,-1,-1,-1,-1,-1,-1,-1,-1,-1],"loss_changes":[1.0391185E1,3.3770547E0,2.5316772E0,2.7845936E0,4.2037673E0,5.5918694E-1,1.5188124E0,1.798847E0,4.4674892E0,4.9096394E-1,2.088771E0,1.4050112E0,1.2451315E0,8.1972575E-1,2.7815645E0,3.0107422E0,2.7720256E0,4.8484802E-2,3.8650832E0,1.040473E-1,1.0219641E0,2.0346332E0,2.63642E0,7.970221E-1,0E0,9.2158914E-1,0E0,6.873474E-1,0E0,2.1712456E0,2.4143288E0,4.076932E0,4.4865875E0,2.7202687E0,2.7623448E0,3.4527016E-1,0E0,1.9672636E0,1.4374061E0,0E0,7.1240425E-2,0E0,0E0,3.088649E0,1.3807766E0,1.8458018E0,2.0338023E0,3.6431015E-1,4.367047E-1,0E0,0E0,1.3315711E0,0E0,2.4295342E0,0E0,6.657934E-2,2.3129876E0,0E0,0E0,0E0,0E0,0E0,0E0,0E0,0E0,0E0,0E0,0E0,0E0,0E0,0E0,0E0,0E0,0E0,0E0,0E0,0E0,0E0,0E0,0E0,0E0,0E0,0E0,0E0,0E0,0E0,0E0,0E0,0E0,0E0,0E0,0E0,0E0],"parents":[2147483647,0,0,1,1,2,2,3,3,4,4,5,5,6,6,7,7,8,8,9,9,10,10,11,11,12,12,13,13,14,14,15,15,16,16,17,17,18,18,19,19,20,20,21,21,22,22,23,23,25,25,27,27,29,29,30,30,31,31,32,32,33,33,34,34,35,35,37,37,38,38,40,40,43,43,44,44,45,45,46,46,47,47,48,48,51,51,53,53,55,55,56,56],"right_children":[2,4,6,8,10,12,14,16,18,20,22,24,26,28,30,32,34,36,38,40,42,44,46,48,-1,50,-1,52,-1,54,56,58,60,62,64,66,-1,68,70,-1,72,-1,-1,74,76,78,80,82,84,-1,-1,86,-1,88,-1,90,92,-1,-1,-1,-1,-1,-1,-1,-1,-1,-1,-1,-1,-1,-1,-1,-1,-1,-1,-1,-1,-1,-1,-1,-1,-1,-1,-1,-1,-1,-1,-1,-1,-1,-1,-1,-1],"split_conditions":[1E0,1.8E1,1E0,9.735E1,2.48E1,1E0,4.47345E3,1E0,1.0005E2,9.214E2,1E0,1E0,6.0969E3,1E0,5.6458E3,1.5E1,1.3475E2,1E0,1E0,3.877E2,1E0,7.1E1,1E0,1E0,-2.911069E-1,5.6E1,6.983274E-2,1.334E3,1.3606468E-2,6.8E1,1.0325E2,7.5955E2,1E0,1E0,1E0,9.885E1,3.5297918E-1,1E0,1.0375E2,-6.7444794E-2,1E0,-1.7797458E-1,1.1413028E-1,7.4751E3,1.089E2,1.60025E3,1E0,2.045E1,1E0,4.3850727E-4,-2.4576251E-1,2.045E1,-2.659692E-1,5.2643E3,-1.585849E-1,1E0,1.089E2,2.7837643E-2,-8.6681366E-2,-2.4385943E-1,1.5909298E-1,1.472913E-1,-1.7860621E-1,-1.724052E-1,-1.7601812E-2,2.511241E-1,5.2974608E-2,2.0848693E-1,-8.4832326E-2,-3.2929328E-1,-5.5226586E-3,-2.703192E-1,-9.2899814E-2,-5.796013E-3,2.7411315E-1,-2.4200693E-1,7.259753E-2,-2.4248879E-1,-6.591018E-2,-1.250317E-1,2.2989649E-1,-5.8930838E-3,-2.1932241E-1,-5.8869053E-2,1.3293676E-1,-1.8743345E-1,1.4226565E-1,2.6984222E-2,4.2582527E-1,-8.421191E-2,-2.6002118E-1,1.23722814E-1,-1.10531166E-1],"split_indices":[21,4,13,14,14,22,15,8,14,15,25,2,15,24,15,4,15,0,10,15,13,4,1,23,0,4,0,15,0,4,14,15,19,3,13,14,0,3,14,0,22,0,0,15,14,15,12,14,6,0,0,14,0,15,0,8,14,0,0,0,0,0,0,0,0,0,0,0,0,0,0,0,0,0,0,0,0,0,0,0,0,0,0,0,0,0,0,0,0,0,0,0,0],"split_type":[0,0,0,0,0,0,0,0,0,0,0,0,0,0,0,0,0,0,0,0,0,0,0,0,0,0,0,0,0,0,0,0,0,0,0,0,0,0,0,0,0,0,0,0,0,0,0,0,0,0,0,0,0,0,0,0,0,0,0,0,0,0,0,0,0,0,0,0,0,0,0,0,0,0,0,0,0,0,0,0,0,0,0,0,0,0,0,0,0,0,0,0,0],"sum_hessian":[7.821845E2,7.232542E2,5.8930267E1,3.858623E2,3.3739194E2,2.459035E1,3.4339916E1,3.658929E2,1.9969387E1,1.0849341E1,3.265426E2,1.697013E1,7.6202197E0,9.173763E0,2.5166155E1,3.0396814E2,6.1924763E1,7.563682E0,1.2405705E1,8.439813E0,2.4095285E0,2.9713416E2,2.9408436E1,5.5527587E0,1.1417372E1,5.6216493E0,1.9985704E0,7.4987373E0,1.675026E0,5.8455563E0,1.9320599E1,2.785984E2,2.5369774E1,1.2837818E1,4.9086945E1,3.6414714E0,3.9222105E0,8.227248E0,4.178457E0,1.2899597E0,7.149853E0,1.3017969E0,1.1077316E0,2.9177594E2,5.3582277E0,2.4986858E1,4.4215775E0,3.12992E0,2.4228387E0,1.9261003E0,3.695549E0,2.5508027E0,4.9479346E0,4.804276E0,1.0412804E0,5.778834E0,1.3541764E1,2.4805762E2,3.0540754E1,1.8762459E0,2.3493528E1,1.0871619E1,1.9661996E0,1.3869199E1,3.5217747E1,1.4272295E0,2.214242E0,5.9506755E0,2.276573E0,2.0450127E0,2.133444E0,5.4570103E0,1.692843E0,2.89184E2,2.5919354E0,4.213283E0,1.1449445E0,7.4904284E0,1.749643E1,1.5171971E0,2.9043806E0,1.0089638E0,2.1209562E0,1.4226527E0,1.000186E0,1.5361367E0,1.014666E0,3.12719E0,1.6770859E0,1.5507376E0,4.2280965E0,5.591542E0,7.9502225E0],"tree_param":{"num_deleted":"0","num_feature":"26","num_nodes":"93","size_leaf_vector":"1"}},{"base_weights":[-2.321174E-2,2.7592594E-3,-3.665268E-1,-6.50781E-1,7.950483E-3,-5.9902537E-1,-2.0254648E-1,-2.5657412E-1,-7.415228E-2,3.8167253E-2,-1.0268465E-1,-7.1262777E-1,-3.106051E-1,-5.0935346E-1,-8.487413E-2,2.5239834E-1,1.448886E-2,1.706383E-1,-1.6987704E-1,-2.478645E-1,-2.8065184E-1,2.0030099E-1,-5.3490585E-1,8.9808805E-3,-2.5732455E-1,3.141301E-1,-2.5285318E-1,3.9177102E-1,-2.5597015E-1,-1.0128113E-1,8.08273E-2,5.4697238E-2,8.385342E-1,-5.8806247E-1,-5.4297738E-2,-5.0417566E-1,1.0174858E-1,-1.6719216E-1,2.751273E-1,-2.3659307E-1,2.4738364E-2,-1.7573741E-1,4.2310196E-1,2.5602603E-1,-1.3065949E-2,-1.0281563E-1,-2.3356089E-1,1.7418394E-2,1.7142448E-1,-1.697676E-1,5.4746557E-2,-5.23897E-3,-7.511631E-2,1.6425951E-1,1.8006738E-2,-6.1105933E-2,9.3768604E-2,2.9960835E-1,1.04328066E-1,2.506499E-1,-2.0362972E-1,9.193559E-2,-5.8945034E-2,-5.0216056E-3,-2.0279734E-1,1.2814964E-1,-6.696899E-2,2.136441E-1,-3.2412045E-2,-1.9816844E-1,1.08068585E-1,-1.3999234E-1,6.7431755E-2],"categories":[],"categories_nodes":[],"categories_segments":[],"categories_sizes":[],"default_left":[0,0,0,0,0,0,0,0,0,0,0,0,0,0,0,0,0,0,0,0,0,0,0,0,0,0,0,0,0,0,0,0,0,0,0,0,0,0,0,0,0,0,0,0,0,0,0,0,0,0,0,0,0,0,0,0,0,0,0,0,0,0,0,0,0,0,0,0,0,0,0,0,0],"id":10,"left_children":[1,3,5,7,9,11,13,-1,-1,15,17,19,21,23,25,27,29,31,33,35,-1,37,39,41,-1,43,45,47,49,51,53,55,57,59,61,63,65,-1,-1,-1,-1,-1,67,-1,69,71,-1,-1,-1,-1,-1,-1,-1,-1,-1,-1,-1,-1,-1,-1,-1,-1,-1,-1,-1,-1,-1,-1,-1,-1,-1,-1,-1],"loss_changes":[6.883178E0,2.4430742E0,1.9485302E0,2.5692153E-1,2.390523E0,4.9763823E-1,1.1607095E0,0E0,0E0,2.8445299E0,2.8466468E0,1.3188162E0,1.0208597E0,1.6410136E0,1.7753536E0,4.055378E0,3.89932E0,2.337112E0,5.9445324E0,6.080073E-1,0E0,2.2271838E0,9.7567105E-1,1.3870796E0,0E0,1.4126275E0,1.3680987E0,2.6169033E0,1.8175988E0,2.3078349E0,3.0999622E0,1.8820268E0,4.993677E-3,4.011176E0,5.085806E0,3.0295634E-1,4.6126902E-1,0E0,0E0,0E0,0E0,0E0,5.846959E-1,0E0,1.6708409E0,1.9446249E0,0E0,0E0,0E0,0E0,0E0,0E0,0E0,0E0,0E0,0E0,0E0,0E0,0E0,0E0,0E0,0E0,0E0,0E0,0E0,0E0,0E0,0E0,0E0,0E0,0E0,0E0,0E0],"parents":[2147483647,0,0,1,1,2,2,3,3,4,4,5,5,6,6,9,9,10,10,11,11,12,12,13,13,14,14,15,15,16,16,17,17,18,18,19,19,21,21,22,22,23,23,25,25,26,26,27,27,28,28,29,29,30,30,31,31,32,32,33,33,34,34,35,35,36,36,42,42,44,44,45,45],"right_children":[2,4,6,8,10,12,14,-1,-1,16,18,20,22,24,26,28,30,32,34,36,-1,38,40,42,-1,44,46,48,50,52,54,56,58,60,62,64,66,-1,-1,-1,-1,-1,68,-1,70,72,-1,-1,-1,-1,-1,-1,-1,-1,-1,-1,-1,-1,-1,-1,-1,-1,-1,-1,-1,-1,-1,-1,-1,-1,-1,-1,-1],"split_conditions":[1E0,1.925E1,1E0,1E0,1E0,1E0,1E0,-2.5657412E-1,-7.415228E-2,1E0,5E0,1E0,5.6E1,5.7E1,1E0,4.92E1,7.36E1,1E0,5.1E1,1E0,-2.8065184E-1,4.7E1,6.54945E3,2.425E1,-2.5732455E-1,9.545E1,7.2E1,1E0,1.93275E3,4.3395E2,7.45E1,1E0,1E0,1.945E1,7.495E1,2.045E1,5.1E1,-1.6719216E-1,2.751273E-1,-2.3659307E-1,2.4738364E-2,-1.7573741E-1,1E0,2.5602603E-1,1.026E2,1.064E2,-2.3356089E-1,1.7418394E-2,1.7142448E-1,-1.697676E-1,5.4746557E-2,-5.23897E-3,-7.511631E-2,1.6425951E-1,1.8006738E-2,-6.1105933E-2,9.3768604E-2,2.9960835E-1,1.04328066E-1,2.506499E-1,-2.0362972E-1,9.193559E-2,-5.8945034E-2,-5.0216056E-3,-2.0279734E-1,1.2814964E-1,-6.696899E-2,2.136441E-1,-3.2412045E-2,-1.9816844E-1,1.08068585E-1,-1.3999234E-1,6.7431755E-2],"split_indices":[21,14,13,0,3,22,11,0,0,5,4,2,4,4,10,14,14,9,14,23,0,4,15,14,0,14,4,13,15,15,14,0,13,14,14,14,4,0,0,0,0,0,12,0,14,14,0,0,0,0,0,0,0,0,0,0,0,0,0,0,0,0,0,0,0,0,0,0,0,0,0,0,0],"split_type":[0,0,0,0,0,0,0,0,0,0,0,0,0,0,0,0,0,0,0,0,0,0,0,0,0,0,0,0,0,0,0,0,0,0,0,0,0,0,0,0,0,0,0,0,0,0,0,0,0,0,0,0,0,0,0,0,0,0,0,0,0,0,0,0,0,0,0,0,0,0,0,0,0],"sum_hessian":[7.708691E2,7.1757794E2,5.3291164E1,4.674921E0,7.12903E2,2.0943506E1,3.234766E1,2.3602262E0,2.3146951E0,5.604794E2,1.5242363E2,1.3970168E1,6.973337E0,8.044547E0,2.4303114E1,5.4821404E1,5.05658E2,2.977329E1,1.22650345E2,5.2125854E0,8.757583E0,2.1601057E0,4.8132315E0,3.6252306E0,4.4193163E0,6.9424677E0,1.7360645E1,4.320564E1,1.1615765E1,1.8400917E2,3.2164883E2,2.6291248E1,3.4820428E0,2.567303E1,9.697731E1,2.752531E0,2.4600542E0,1.15832E0,1.0017856E0,3.214601E0,1.5986304E0,1.3178936E0,2.3073368E0,2.0142548E0,4.9282126E0,1.4435989E1,2.924656E0,1.5582503E1,2.7623135E1,6.6351266E0,4.9806376E0,1.1850856E2,6.55006E1,1.2646174E1,3.0900266E2,1.3237356E1,1.3053891E1,1.8450024E0,1.6370404E0,1.0459404E0,2.462709E1,2.709E1,6.9887314E1,1.0033813E0,1.7491499E0,1.072083E0,1.387971E0,1.273513E0,1.033824E0,1.5207907E0,3.407422E0,6.638582E0,7.797407E0],"tree_param":{"num_deleted":"0","num_feature":"26","num_nodes":"73","size_leaf_vector":"1"}},{"base_weights":[-1.9142853E-2,8.591032E-3,-2.594733E-1,-1.8590325E-1,2.7776456E-2,-6.315614E-1,-1.3514744E-1,-5.8135337E-1,-8.480503E-2,1.7078504E-1,6.816015E-3,-7.671192E-1,-3.2939813E-1,-3.2292387E-1,1.6919278E-1,-7.129765E-1,1.1149529E-1,-3.1010503E-2,-2.6189426E-1,1.0183109E-1,6.2599564E-1,-5.0162587E-2,6.924484E-2,-1.1047315E-2,-8.2734954E-1,-2.329711E-1,6.35338E-2,-6.829348E-1,-3.947408E-2,8.5646755E-1,-5.082992E-3,1.9830303E-2,-8.255318E-1,-7.674287E-2,5.291055E-1,4.7947995E-2,4.8723683E-1,1.0195401E0,4.2034518E-2,-6.0907E-2,5.1129556E-1,1.2034396E-1,-1.3194427E-1,-2.6658133E-1,-6.1535023E-2,-1.8897457E-1,4.6816427E-1,-9.1064763E-1,-4.0305996E-1,2.9052314E-1,-5.283473E-1,1.2739666E0,-7.082053E-2,-5.3743404E-1,1.5511236E-1,-2.7293333E-1,-4.9701035E-2,-1.0700275E-3,-2.7379274E-1,1.9723263E-1,5.1209155E-2,-3.55197E-2,5.882266E-2,2.3467538E-1,-1.481888E-1,3.3924836E-1,1.0746374E-1,-1.9612826E-1,2.3596133E-1,-1.1558171E-2,-1.701628E-1,2.999448E-1,-8.131164E-2,2.441956E-2,1.3895935E-1,2.0403616E-1,-6.7278676E-2,2.8198498E-1,-6.695231E-2,-7.414541E-2,-3.0576682E-1,-1.8150507E-1,7.307871E-2,3.3231097E-1,2.8156733E-2,4.640388E-2,-2.0065065E-1,1.3457617E-1,5.0677407E-1,5.0514746E-2,-2.3324178E-1,-8.875523E-2,8.478226E-2],"categories":[],"categories_nodes":[],"categories_segments":[],"categories_sizes":[],"default_left":[0,0,0,0,0,0,0,0,0,0,0,0,0,0,0,0,0,0,0,0,0,0,0,0,0,0,0,0,0,0,0,0,0,0,0,0,0,0,0,0,0,0,0,0,0,0,0,0,0,0,0,0,0,0,0,0,0,0,0,0,0,0,0,0,0,0,0,0,0,0,0,0,0,0,0,0,0,0,0,0,0,0,0,0,0,0,0,0,0,0,0,0,0],"id":11,"left_children":[1,3,5,7,9,11,13,15,17,19,21,23,25,27,29,31,-1,33,-1,35,37,39,41,-1,43,-1,45,47,49,51,53,-1,55,57,59,61,63,65,67,69,71,73,75,-1,-1,-1,77,79,81,83,85,87,-1,89,91,-1,-1,-1,-1,-1,-1,-1,-1,-1,-1,-1,-1,-1,-1,-1,-1,-1,-1,-1,-1,-1,-1,-1,-1,-1,-1,-1,-1,-1,-1,-1,-1,-1,-1,-1,-1,-1,-1],"loss_changes":[5.0833497E0,2.5590565E0,3.5646682E0,2.4126835E0,1.8688143E0,5.455761E-1,3.507138E0,1.8163042E0,2.1019862E0,2.4380836E0,1.942581E0,5.2818346E-1,1.4177458E0,3.8206847E0,2.8439972E0,1.0374923E0,0E0,1.271241E0,0E0,1.4389188E0,2.322154E0,1.7539676E0,2.6944556E0,0E0,2.6315737E-1,0E0,1.7174307E0,6.8758774E-1,3.7280436E0,2.4909127E0,1.7809899E0,0E0,3.978629E-1,2.767013E0,6.0410738E-2,1.5727699E0,2.8549402E0,4.422331E-2,3.2007446E0,3.1634967E0,2.3611772E0,2.7436175E0,4.144498E0,0E0,0E0,0E0,1.4411253E0,3.4820604E-1,1.3512021E0,2.1256428E0,9.943142E-1,4.86588E-1,0E0,9.489913E-1,1.0080163E0,0E0,0E0,0E0,0E0,0E0,0E0,0E0,0E0,0E0,0E0,0E0,0E0,0E0,0E0,0E0,0E0,0E0,0E0,0E0,0E0,0E0,0E0,0E0,0E0,0E0,0E0,0E0,0E0,0E0,0E0,0E0,0E0,0E0,0E0,0E0,0E0,0E0,0E0],"parents":[2147483647,0,0,1,1,2,2,3,3,4,4,5,5,6,6,7,7,8,8,9,9,10,10,11,11,12,12,13,13,14,14,15,15,17,17,19,19,20,20,21,21,22,22,24,24,26,26,27,27,28,28,29,29,30,30,32,32,33,33,34,34,35,35,36,36,37,37,38,38,39,39,40,40,41,41,42,42,46,46,47,47,48,48,49,49,50,50,51,51,53,53,54,54],"right_children":[2,4,6,8,10,12,14,16,18,20,22,24,26,28,30,32,-1,34,-1,36,38,40,42,-1,44,-1,46,48,50,52,54,-1,56,58,60,62,64,66,68,70,72,74,76,-1,-1,-1,78,80,82,84,86,88,-1,90,92,-1,-1,-1,-1,-1,-1,-1,-1,-1,-1,-1,-1,-1,-1,-1,-1,-1,-1,-1,-1,-1,-1,-1,-1,-1,-1,-1,-1,-1,-1,-1,-1,-1,-1,-1,-1,-1,-1],"split_conditions":[6E1,2.085E1,1E0,1E0,9.555E1,1E0,1E0,1.0433E3,2.065E1,1E0,1E0,1.3463E3,7.16E1,6.82215E3,5.7911E3,3.72E1,1.1149529E-1,2.05E1,-2.6189426E-1,1E0,1E0,1.0515E2,1E0,-1.1047315E-2,6.54945E3,-2.329711E-1,6.5E1,1E0,1E0,1E0,1E0,1.9830303E-2,9.214E2,2.04E1,2.06E1,5.035E1,1E0,8.46E1,9.025E1,4.16205E3,1.068E2,5.3E1,6E0,-2.6658133E-1,-6.1535023E-2,-1.8897457E-1,1E0,7.495E1,1E0,1E0,1E0,5.2643E3,-7.082053E-2,6.2E1,1.026E2,-2.7293333E-1,-4.9701035E-2,-1.0700275E-3,-2.7379274E-1,1.9723263E-1,5.1209155E-2,-3.55197E-2,5.882266E-2,2.3467538E-1,-1.481888E-1,3.3924836E-1,1.0746374E-1,-1.9612826E-1,2.3596133E-1,-1.1558171E-2,-1.701628E-1,2.999448E-1,-8.131164E-2,2.441956E-2,1.3895935E-1,2.0403616E-1,-6.7278676E-2,2.8198498E-1,-6.695231E-2,-7.414541E-2,-3.0576682E-1,-1.8150507E-1,7.307871E-2,3.3231097E-1,2.8156733E-2,4.640388E-2,-2.0065065E-1,1.3457617E-1,5.0677407E-1,5.0514746E-2,-2.3324178E-1,-8.875523E-2,8.478226E-2],"split_indices":[4,14,11,19,15,20,24,15,14,11,6,15,14,15,15,15,0,14,0,12,12,14,3,0,15,0,4,0,0,10,9,0,15,14,15,15,3,14,14,15,14,4,4,0,0,0,0,14,1,9,8,15,0,4,14,0,0,0,0,0,0,0,0,0,0,0,0,0,0,0,0,0,0,0,0,0,0,0,0,0,0,0,0,0,0,0,0,0,0,0,0,0,0],"split_type":[0,0,0,0,0,0,0,0,0,0,0,0,0,0,0,0,0,0,0,0,0,0,0,0,0,0,0,0,0,0,0,0,0,0,0,0,0,0,0,0,0,0,0,0,0,0,0,0,0,0,0,0,0,0,0,0,0,0,0,0,0,0,0,0,0,0,0,0,0,0,0,0,0,0,0,0,0,0,0,0,0,0,0,0,0,0,0,0,0,0,0,0,0],"sum_hessian":[7.6132477E2,6.834227E2,7.790203E1,6.0581497E1,6.2284125E2,1.8488602E1,5.9413425E1,1.1367325E1,4.9214172E1,7.870512E1,5.441361E2,1.1700649E1,6.787953E0,3.6705345E1,2.270808E1,1.0209162E1,1.1581628E0,4.704276E1,2.1714146E0,6.941417E1,9.29095E0,2.8458902E2,2.595471E2,1.014248E0,1.0686401E1,2.718193E0,4.0697603E0,1.554817E1,2.1157177E1,3.801607E0,1.8906473E1,1.3408537E0,8.868308E0,4.428959E1,2.7531703E0,6.1886326E1,7.527842E0,5.104805E0,4.1861453E0,2.8012E2,4.4690294E0,2.0729819E2,5.22489E1,9.338951E0,1.3474501E0,1.2945002E0,2.77526E0,7.3302994E0,8.217871E0,1.2873255E1,8.283922E0,2.6303773E0,1.1712296E0,3.8286104E0,1.5077863E1,7.5284004E0,1.3399074E0,4.1647923E1,2.6416652E0,1.4129068E0,1.3402635E0,2.9244967E1,3.264136E1,5.943567E0,1.5842749E0,3.76183E0,1.3429747E0,2.2268584E0,1.9592868E0,2.6929272E2,1.0827281E1,2.5799909E0,1.8890387E0,1.8726392E2,2.003426E1,4.683536E0,4.7565365E1,1.4358165E0,1.3394434E0,1.4915915E0,5.838708E0,6.3112082E0,1.906662E0,1.598577E0,1.1274678E1,1.3959688E0,6.8879533E0,1.576751E0,1.0536262E0,1.0473804E0,2.78123E0,3.032196E0,1.2045667E1],"tree_param":{"num_deleted":"0","num_feature":"26","num_nodes":"93","size_leaf_vector":"1"}},{"base_weights":[-1.52078075E-2,-4.6167434E-3,-4.8429525E-1,-6.0069793E-1,-1.0763116E-4,-2.4999455E-1,-3.2048285E-1,-2.3728998E-1,-7.373922E-2,-1.020703E-1,2.44674E-2,-2.0313092E-1,-2.0664223E-1,-5.666026E-1,-5.8296125E-2,3.1791072E-2,-4.8362792E-1,-5.0071593E-2,-5.2871865E-1,1.3190302E-1,-6.9665647E-1,5.7550967E-1,-7.9384886E-2,2.5393616E-2,2.7240226E-1,5.674489E-2,-8.917074E-1,-2.836608E-1,1.7180294E-1,-2.0223098E-1,-2.3720132E-2,-2.2720218E-1,-1.7585965E-2,4.108059E-1,-3.2546006E-2,-9.531675E-2,-3.0677265E-3,1.0487664E-2,-2.2122939E-1,-2.2005002E-1,1.8065134E-1,-3.018885E-1,-7.5115174E-2,1.0111028E-2,-2.2688775E-1],"categories":[],"categories_nodes":[],"categories_segments":[],"categories_sizes":[],"default_left":[0,0,0,0,0,0,0,0,0,0,0,0,0,0,0,0,0,0,0,0,0,0,0,0,0,0,0,0,0,0,0,0,0,0,0,0,0,0,0,0,0,0,0,0,0],"id":12,"left_children":[1,3,5,7,9,-1,11,-1,-1,13,15,-1,17,19,21,23,25,27,29,-1,31,33,35,37,-1,39,41,43,-1,-1,-1,-1,-1,-1,-1,-1,-1,-1,-1,-1,-1,-1,-1,-1,-1],"loss_changes":[3.7330189E0,1.9788306E0,6.8148875E-1,1.788317E-1,1.8360051E0,0E0,3.8444793E-1,0E0,0E0,2.8606195E0,2.212409E0,0E0,5.398262E-1,1.8950803E0,1.7988255E0,3.2448187E0,1.9141911E0,1.422354E0,1.8000317E-1,0E0,3.8683558E-1,2.5077622E0,2.1035936E0,4.2561703E0,0E0,2.4141798E0,1.0627532E-1,1.0705612E0,0E0,0E0,0E0,0E0,0E0,0E0,0E0,0E0,0E0,0E0,0E0,0E0,0E0,0E0,0E0,0E0,0E0],"parents":[2147483647,0,0,1,1,2,2,3,3,4,4,6,6,9,9,10,10,12,12,13,13,14,14,15,15,16,16,17,17,18,18,20,20,21,21,22,22,23,23,25,25,26,26,27,27],"right_children":[2,4,6,8,10,-1,12,-1,-1,14,16,-1,18,20,22,24,26,28,30,-1,32,34,36,38,-1,40,42,44,-1,-1,-1,-1,-1,-1,-1,-1,-1,-1,-1,-1,-1,-1,-1,-1,-1],"split_conditions":[7.1E1,1.925E1,1E0,1E0,1E0,-2.4999455E-1,1E0,-2.3728998E-1,-7.373922E-2,2.405E1,1.076E2,-2.0313092E-1,1.094E2,1.94E1,2.54E1,6.82215E3,4.4E1,7.6898E3,1.1515E2,1.3190302E-1,1E0,7.417E2,6.95E1,6.2E1,2.7240226E-1,2.1E1,1.106E2,1E0,1.7180294E-1,-2.0223098E-1,-2.3720132E-2,-2.2720218E-1,-1.7585965E-2,4.108059E-1,-3.2546006E-2,-9.531675E-2,-3.0677265E-3,1.0487664E-2,-2.2122939E-1,-2.2005002E-1,1.8065134E-1,-3.018885E-1,-7.5115174E-2,1.0111028E-2,-2.2688775E-1],"split_indices":[4,14,13,0,19,0,11,0,0,14,14,0,14,14,14,15,4,15,14,0,24,15,14,4,0,4,14,20,0,0,0,0,0,0,0,0,0,0,0,0,0,0,0,0,0],"split_type":[0,0,0,0,0,0,0,0,0,0,0,0,0,0,0,0,0,0,0,0,0,0,0,0,0,0,0,0,0,0,0,0,0,0,0,0,0,0,0,0,0,0,0,0,0],"sum_hessian":[7.508424E2,7.352517E2,1.5590683E1,4.5274525E0,7.307243E2,3.6745825E0,1.19161005E1,2.1474602E0,2.3799922E0,1.4130235E2,5.8942194E2,1.6861633E0,1.0229938E1,1.1140063E1,1.301623E2,5.819708E2,7.4510846E0,7.6611137E0,2.5688236E0,1.0025101E0,1.0137553E1,3.344875E0,1.2681741E2,5.7877405E2,3.1967812E0,3.5763204E0,3.874764E0,5.967311E0,1.6938028E0,1.5639787E0,1.0048449E0,9.086358E0,1.0511954E0,1.0843705E0,2.2605045E0,2.7714178E1,9.910324E1,5.725489E2,6.2251678E0,1.3195952E0,2.2567253E0,2.8045702E0,1.0701939E0,4.1256776E0,1.8416336E0],"tree_param":{"num_deleted":"0","num_feature":"26","num_nodes":"45","size_leaf_vector":"1"}},{"base_weights":[-1.3429352E-2,-4.7476967E-3,-4.3081412E-1,-4.6710413E-2,4.2081393E-2,-2.3449497E-1,-2.8312707E-1,1.6271347E-2,-1.0745741E-1,1.2564917E-1,-3.917519E-2,-1.8712035E-1,-1.8123418E-1,-2.7609533E-2,4.885435E-1,-7.2244585E-1,-8.197348E-2,2.1577255E-1,-2.846537E-1,5.596005E-1,-8.288477E-2,-4.602497E-2,-4.754984E-1,-5.5040058E-2,3.242656E-1,6.4022094E-1,-1.196279E-1,-2.4833696E-1,-2.643333E-1,3.6074993E-1,-9.959916E-2,8.723495E-1,1.5863463E-1,-6.7936087E-1,-1.1695453E-1,1.8919526E-1,1.0188184E0,-4.0067893E-1,3.478547E-2,-2.4332324E-1,1.317691E-1,-1.7944653E-1,-3.62835E-2,-5.0747516E-3,-2.4016045E-1,2.2773372E-1,-1.1614486E-1,2.8809546E-2,3.7024122E-1,-1.7507912E-1,4.5432385E-2,-6.454279E-2,-3.5787488E-3,-9.406764E-2,3.1380948E-1,-1.1897619E-1,5.879384E-2,-3.1153798E-1,6.796162E-2,4.4020247E-2,-1.837582E-1,-4.161418E-2,2.996208E-1,3.4385982E-1,1.0006013E-1,-2.7656996E-1,-6.851395E-2,2.87657E-1,1.9590235E-3,7.6143127E-3,-2.0707054E-1],"categories":[],"categories_nodes":[],"categories_segments":[],"categories_sizes":[],"default_left":[0,0,0,0,0,0,0,0,0,0,0,0,0,0,0,0,0,0,0,0,0,0,0,0,0,0,0,0,0,0,0,0,0,0,0,0,0,0,0,0,0,0,0,0,0,0,0,0,0,0,0,0,0,0,0,0,0,0,0,0,0,0,0,0,0,0,0,0,0,0,0],"id":13,"left_children":[1,3,5,7,9,-1,11,13,15,17,19,-1,21,23,25,27,29,31,33,35,37,39,41,43,45,47,-1,49,-1,-1,51,53,55,57,59,61,63,65,67,69,-1,-1,-1,-1,-1,-1,-1,-1,-1,-1,-1,-1,-1,-1,-1,-1,-1,-1,-1,-1,-1,-1,-1,-1,-1,-1,-1,-1,-1,-1,-1],"loss_changes":[2.7007253E0,1.4398013E0,5.656004E-1,1.47999E0,2.3566022E0,0E0,3.123051E-1,3.9627097E0,3.0251992E0,6.3835626E0,4.6619005E0,0E0,4.0954235E-1,1.7099686E0,2.4428804E0,3.606286E-1,4.42367E0,5.1418777E0,1.9871864E0,1.8699348E0,6.1925178E0,9.241844E-1,7.1454704E-2,4.6330066E0,4.2608266E0,4.492072E0,0E0,5.338823E-1,0E0,0E0,1.906418E0,2.6030827E0,2.7878134E0,3.1961484E0,3.1111357E0,2.24637E0,7.041407E-2,3.8061743E0,3.166063E0,8.236207E-1,0E0,0E0,0E0,0E0,0E0,0E0,0E0,0E0,0E0,0E0,0E0,0E0,0E0,0E0,0E0,0E0,0E0,0E0,0E0,0E0,0E0,0E0,0E0,0E0,0E0,0E0,0E0,0E0,0E0,0E0,0E0],"parents":[2147483647,0,0,1,1,2,2,3,3,4,4,6,6,7,7,8,8,9,9,10,10,12,12,13,13,14,14,15,15,16,16,17,17,18,18,19,19,20,20,21,21,22,22,23,23,24,24,25,25,27,27,30,30,31,31,32,32,33,33,34,34,35,35,36,36,37,37,38,38,39,39],"right_children":[2,4,6,8,10,-1,12,14,16,18,20,-1,22,24,26,28,30,32,34,36,38,40,42,44,46,48,-1,50,-1,-1,52,54,56,58,60,62,64,66,68,70,-1,-1,-1,-1,-1,-1,-1,-1,-1,-1,-1,-1,-1,-1,-1,-1,-1,-1,-1,-1,-1,-1,-1,-1,-1,-1,-1,-1,-1,-1,-1],"split_conditions":[7.1E1,1E0,1E0,1.7E1,1E0,-2.3449497E-1,1E0,8.905E1,6.5455E2,1E0,7.01E1,-1.8712035E-1,1.094E2,1.5E1,1.43095E3,1.9E1,7.417E2,1E0,1E0,5.035E1,7.04E1,7.6898E3,1.1445E2,1.3E1,7.45E1,9.214E2,-1.196279E-1,4.003E2,-2.643333E-1,3.6074993E-1,1E0,2.495E1,6.455E1,3.83875E3,1.0005E2,1E0,1E0,5E0,7.105E1,1E0,1.317691E-1,-1.7944653E-1,-3.62835E-2,-5.0747516E-3,-2.4016045E-1,2.2773372E-1,-1.1614486E-1,2.8809546E-2,3.7024122E-1,-1.7507912E-1,4.5432385E-2,-6.454279E-2,-3.5787488E-3,-9.406764E-2,3.1380948E-1,-1.1897619E-1,5.879384E-2,-3.1153798E-1,6.796162E-2,4.4020247E-2,-1.837582E-1,-4.161418E-2,2.996208E-1,3.4385982E-1,1.0006013E-1,-2.7656996E-1,-6.851395E-2,2.87657E-1,1.9590235E-3,7.6143127E-3,-2.0707054E-1],"split_indices":[4,24,13,4,0,0,11,14,15,10,15,0,14,4,15,4,15,5,13,15,14,15,14,4,14,15,0,15,0,0,12,14,15,15,14,1,12,4,14,20,0,0,0,0,0,0,0,0,0,0,0,0,0,0,0,0,0,0,0,0,0,0,0,0,0,0,0,0,0,0,0],"split_type":[0,0,0,0,0,0,0,0,0,0,0,0,0,0,0,0,0,0,0,0,0,0,0,0,0,0,0,0,0,0,0,0,0,0,0,0,0,0,0,0,0,0,0,0,0,0,0,0,0,0,0,0,0,0,0,0,0,0,0,0,0,0,0,0,0,0,0,0,0,0,0],"sum_hessian":[7.448819E2,7.306947E2,1.4187167E1,3.8537213E2,3.453226E2,2.9312568E0,1.125591E1,1.8956526E2,1.9580687E2,1.6997089E2,1.7535172E2,1.4125539E0,9.843356E0,1.7431082E2,1.5254444E1,6.7028127E0,1.8910405E2,1.3974901E2,3.0221882E1,1.1126574E1,1.6422514E2,7.5367565E0,2.3065994E0,1.6248763E2,1.1823188E1,1.3265309E1,1.9891354E0,2.3239021E0,4.3789105E0,1.6498084E0,1.8745424E2,1.0045687E1,1.2970332E2,8.101833E0,2.2120049E1,6.9404235E0,4.1861506E0,4.372666E1,1.2049848E2,5.712641E0,1.8241161E0,1.2032667E0,1.1033328E0,1.555553E2,6.9323277E0,7.2963233E0,4.526864E0,7.528681E0,5.7366285E0,1.0138611E0,1.3100412E0,8.02439E1,1.0721034E2,1.1804136E0,8.865273E0,7.567934E0,1.2213539E2,5.6971498E0,2.4046834E0,1.4897283E1,7.222766E0,5.5293703E0,1.4110527E0,2.9628305E0,1.2233201E0,9.782651E0,3.3944008E1,2.597986E0,1.179005E2,4.1566668E0,1.555974E0],"tree_param":{"num_deleted":"0","num_feature":"26","num_nodes":"71","size_leaf_vector":"1"}},{"base_weights":[-1.0656333E-2,-3.3653455E-3,-3.849157E-1,-7.0736306E-3,5.2149695E-1,-2.1902089E-1,-2.531152E-1,2.4257202E-3,-2.7573052E-1,2.7044773E-1,1.4176156E-1,-4.352709E-1,-1.1076551E-1,-3.7722858E-3,3.9833972E-1,-5.3574497E-1,-1.1605862E-1,-1.0659927E-1,2.2159922E-1,-2.1590634E-1,9.138692E-3,9.178477E-2,-2.7630338E-1,8.017831E-3,-3.7341622E-1,-1.2893768E-1,5.907338E-1,-7.9301363E-1,2.281949E-1,1.2474274E-1,-5.609435E-1,-6.3125014E-2,-1.9212487E-1,-4.0730555E-4,9.64111E-2,-6.314185E-2,-2.5922665E-1,3.030125E-1,6.9779456E-2,1.3104033E-1,-3.1795913E-1,-1.9455664E-2,1.94219E-1,-2.8625494E-1,1.7123637E-1,5.4626863E-2,-1.0198959E-1],"categories":[],"categories_nodes":[],"categories_segments":[],"categories_sizes":[],"default_left":[0,0,0,0,0,0,0,0,0,0,0,0,0,0,0,0,0,0,0,0,0,0,0,0,0,0,0,0,0,0,0,0,0,0,0,0,0,0,0,0,0,0,0,0,0,0,0],"id":14,"left_children":[1,3,5,7,9,-1,11,13,15,-1,17,19,21,23,25,27,29,-1,-1,-1,-1,-1,31,33,35,-1,37,39,-1,41,43,45,-1,-1,-1,-1,-1,-1,-1,-1,-1,-1,-1,-1,-1,-1,-1],"loss_changes":[2.011511E0,1.4139109E0,4.560275E-1,1.839316E0,6.0763144E-1,0E0,2.5580418E-1,1.7114657E0,9.596826E-1,0E0,1.3709315E0,6.5798944E-1,6.310628E-1,2.9974368E0,1.9667029E0,3.6341279E0,1.8403239E0,0E0,0E0,0E0,0E0,0E0,4.4049218E-1,1.9594831E0,1.517828E0,0E0,1.1383178E0,3.1121216E0,0E0,1.1855179E0,3.208376E0,4.024951E-1,0E0,0E0,0E0,0E0,0E0,0E0,0E0,0E0,0E0,0E0,0E0,0E0,0E0,0E0,0E0],"parents":[2147483647,0,0,1,1,2,2,3,3,4,4,6,6,7,7,8,8,10,10,11,11,12,12,13,13,14,14,15,15,16,16,22,22,23,23,24,24,26,26,27,27,29,29,30,30,31,31],"right_children":[2,4,6,8,10,-1,12,14,16,-1,18,20,22,24,26,28,30,-1,-1,-1,-1,-1,32,34,36,-1,38,40,-1,42,44,46,-1,-1,-1,-1,-1,-1,-1,-1,-1,-1,-1,-1,-1,-1,-1],"split_conditions":[7.1E1,7.55955E3,1E0,1.076E2,6.9E1,-2.1902089E-1,7.3488E3,6.82215E3,1.094E2,2.7044773E-1,1E0,1E0,1.0515E2,6.3E1,1E0,6.7E1,6.9897E3,-1.0659927E-1,2.2159922E-1,-2.1590634E-1,9.138692E-3,9.178477E-2,1E0,5.5983E3,1.0025E2,-1.2893768E-1,6.7E1,1E0,2.281949E-1,1E0,7.4751E3,1.094E2,-1.9212487E-1,-4.0730555E-4,9.64111E-2,-6.314185E-2,-2.5922665E-1,3.030125E-1,6.9779456E-2,1.3104033E-1,-3.1795913E-1,-1.9455664E-2,1.94219E-1,-2.8625494E-1,1.7123637E-1,5.4626863E-2,-1.0198959E-1],"split_indices":[4,15,13,14,4,0,15,15,14,0,20,0,14,4,6,4,15,0,0,0,0,0,1,15,14,0,4,9,0,21,15,14,0,0,0,0,0,0,0,0,0,0,0,0,0,0,0],"split_type":[0,0,0,0,0,0,0,0,0,0,0,0,0,0,0,0,0,0,0,0,0,0,0,0,0,0,0,0,0,0,0,0,0,0,0,0,0,0,0,0,0,0,0,0,0,0,0],"sum_hessian":[7.366376E2,7.2355096E2,1.3086582E1,7.194544E2,4.0966043E0,2.3619637E0,1.0724619E1,6.958413E2,2.3613054E1,1.3608356E0,2.735769E0,3.801863E0,6.9227557E0,6.8609106E2,9.7502365E0,8.08763E0,1.5525423E1,1.7134988E0,1.0222702E0,2.0218613E0,1.7800018E0,1.7270287E0,5.195727E0,6.658321E2,2.0258987E1,1.6055346E0,8.144702E0,7.0724087E0,1.0152218E0,1.0540051E1,4.9853716E0,4.0171556E0,1.1785711E0,6.474559E2,1.837623E1,1.6281235E1,3.9777524E0,2.9133976E0,5.231304E0,1.1474321E0,5.9249763E0,8.377129E0,2.1629224E0,3.8162365E0,1.1691353E0,2.3117518E0,1.7054039E0],"tree_param":{"num_deleted":"0","num_feature":"26","num_nodes":"47","size_leaf_vector":"1"}},{"base_weights":[-8.405936E-3,1.838271E-2,-9.4881766E-2,9.959729E-3,6.0170877E-1,-6.9587976E-1,-6.611472E-2,1.5202994E-2,-2.2693816E-1,-2.2506483E-1,9.900807E-1,-2.5058275E-1,-2.6344413E-1,3.5967004E-1,-8.193745E-2,2.1101484E-2,-4.641015E-1,1.2347765E0,-1.7086195E-2,3.7132442E-2,-1.7130697E-1,-5.6040555E-1,-5.5611625E-2,1.0664925E-2,8.906966E-1,-7.596016E-1,1.5492874E-1,4.7458413E-1,4.582663E-1,3.341151E-1,-9.5006174E-1,-2.0845385E-2,-4.5914423E-1,-8.4386964E-4,6.513726E-2,4.0033692E-1,1.5261358E-1,-2.720048E-1,-3.9612617E-2,1.6608225E-1,3.9536744E-2,-1.4454907E-1,2.9085767E-1,-3.816396E-1,7.242721E-2,8.920974E-3,-5.932077E-2,-2.1940324E-1,1.2924873E-2],"categories":[],"categories_nodes":[],"categories_segments":[],"categories_sizes":[],"default_left":[0,0,0,0,0,0,0,0,0,0,0,0,0,0,0,0,0,0,0,0,0,0,0,0,0,0,0,0,0,0,0,0,0,0,0,0,0,0,0,0,0,0,0,0,0,0,0,0,0],"id":15,"left_children":[1,3,5,7,9,11,13,15,-1,-1,17,19,-1,-1,21,23,25,27,-1,-1,-1,29,31,33,35,37,-1,-1,39,41,43,45,47,-1,-1,-1,-1,-1,-1,-1,-1,-1,-1,-1,-1,-1,-1,-1,-1],"loss_changes":[1.7045572E0,2.7555227E0,2.9625063E0,2.242036E0,4.934417E0,4.1657805E-1,3.4443066E0,1.5711542E0,0E0,0E0,1.7696867E0,5.1181847E-1,0E0,0E0,2.0602977E0,4.950416E0,2.3501844E0,7.3629665E-1,0E0,0E0,0E0,3.2972794E0,2.2139597E0,1.5061285E0,4.177246E-1,3.969102E-1,0E0,0E0,2.2989035E-2,2.1956286E0,2.6921792E0,1.3208686E0,1.7436359E0,0E0,0E0,0E0,0E0,0E0,0E0,0E0,0E0,0E0,0E0,0E0,0E0,0E0,0E0,0E0,0E0],"parents":[2147483647,0,0,1,1,2,2,3,3,4,4,5,5,6,6,7,7,10,10,11,11,14,14,15,15,16,16,17,17,21,21,22,22,23,23,24,24,25,25,28,28,29,29,30,30,31,31,32,32],"right_children":[2,4,6,8,10,12,14,16,-1,-1,18,20,-1,-1,22,24,26,28,-1,-1,-1,30,32,34,36,38,-1,-1,40,42,44,46,48,-1,-1,-1,-1,-1,-1,-1,-1,-1,-1,-1,-1,-1,-1,-1,-1],"split_conditions":[3.27355E3,3.1834E3,7.01E1,6.2E1,1E0,6.06E1,7.08E1,3.08825E3,-2.2693816E-1,-2.2506483E-1,1E0,1E0,-2.6344413E-1,3.5967004E-1,3.4361E3,3.00815E3,1E0,1E0,-1.7086195E-2,3.7132442E-2,-1.7130697E-1,8.495E1,1E0,9.735E1,1E0,1E0,1.5492874E-1,4.7458413E-1,1E0,1E0,1.0065E2,1E0,6.5E1,-8.4386964E-4,6.513726E-2,4.0033692E-1,1.5261358E-1,-2.720048E-1,-3.9612617E-2,1.6608225E-1,3.9536744E-2,-1.4454907E-1,2.9085767E-1,-3.816396E-1,7.242721E-2,8.920974E-3,-5.932077E-2,-2.1940324E-1,1.2924873E-2],"split_indices":[15,15,14,4,13,14,14,15,0,0,3,10,0,0,15,15,23,6,0,0,0,14,16,14,13,1,0,0,8,2,14,23,4,0,0,0,0,0,0,0,0,0,0,0,0,0,0,0,0],"split_type":[0,0,0,0,0,0,0,0,0,0,0,0,0,0,0,0,0,0,0,0,0,0,0,0,0,0,0,0,0,0,0,0,0,0,0,0,0,0,0,0,0,0,0,0,0,0,0,0,0],"sum_hessian":[7.340578E2,5.6104395E2,1.7301384E2,5.540606E2,6.9833255E0,6.8437963E0,1.6617004E2,5.512694E2,2.791203E0,1.3505073E0,5.632818E0,2.6774154E0,4.166381E0,1.1290934E0,1.6504094E2,5.4551215E2,5.7572894E0,4.420438E0,1.2123805E0,1.517877E0,1.1595385E0,7.5491376E0,1.574918E2,5.40043E2,5.469132E0,4.597168E0,1.1601216E0,2.3379223E0,2.0825155E0,2.333876E0,5.215262E0,1.4596767E2,1.1524146E1,5.078749E2,3.2168102E1,1.3765188E0,4.092613E0,3.3639777E0,1.2331904E0,1.0733614E0,1.0091542E0,1.1276004E0,1.2062755E0,4.052222E0,1.1630399E0,1.1415644E2,3.181122E1,7.177722E0,4.346424E0],"tree_param":{"num_deleted":"0","num_feature":"26","num_nodes":"49","size_leaf_vector":"1"}},{"base_weights":[-6.611629E-3,-8.56499E-4,-3.2569095E-1,-5.143656E-1,2.6866635E-3,-1.9903491E-1,-2.1162593E-1,-2.1515961E-1,-5.314371E-2,1.0558283E-1,-1.2944897E-2,-1.6470435E-1,-1.2051718E-1,2.3689514E-3,2.6731163E-1,8.151347E-3,-1.318547E-1,-1.5735837E-2,-1.12444825E-1,6.7396484E-2,-5.0691015E-1,5.0431454E-1,-4.3194674E-2,2.885707E-3,5.8117795E-1,-2.0537287E-1,4.3186954E-1,-1.7515402E-1,9.912402E-2,-3.5692838E-3,1.3561448E-1,-2.507252E-1,8.675046E-2,6.9622576E-2,2.58834E-1,-1.2898032E-1,1.04416914E-1,3.960419E-3,-7.139398E-2,2.2951205E-1,5.506998E-2,-9.307787E-2,3.605725E-2,2.4352984E-1,-3.1050293E-2,1.4549879E-2,-1.8133213E-1],"categories":[],"categories_nodes":[],"categories_segments":[],"categories_sizes":[],"default_left":[0,0,0,0,0,0,0,0,0,0,0,0,0,0,0,0,0,0,0,0,0,0,0,0,0,0,0,0,0,0,0,0,0,0,0,0,0,0,0,0,0,0,0,0,0,0,0],"id":16,"left_children":[1,3,5,7,9,-1,11,-1,-1,13,15,-1,17,19,21,23,25,27,-1,29,31,33,35,37,39,41,43,45,-1,-1,-1,-1,-1,-1,-1,-1,-1,-1,-1,-1,-1,-1,-1,-1,-1,-1,-1],"loss_changes":[1.342458E0,1.3100177E0,3.585974E-1,2.1042943E-1,1.1518999E0,0E0,2.7659625E-1,0E0,0E0,1.5759176E0,1.5610663E0,0E0,2.621864E-1,1.9768636E0,2.728777E0,1.5948268E0,3.9745708E0,5.0865936E-1,0E0,1.6189203E0,2.0111833E0,1.8432937E0,2.6983652E0,1.308339E0,2.1140742E-1,2.8927755E0,2.3496406E0,6.290662E-1,0E0,0E0,0E0,0E0,0E0,0E0,0E0,0E0,0E0,0E0,0E0,0E0,0E0,0E0,0E0,0E0,0E0,0E0,0E0],"parents":[2147483647,0,0,1,1,2,2,3,3,4,4,6,6,9,9,10,10,12,12,13,13,14,14,15,15,16,16,17,17,19,19,20,20,21,21,22,22,23,23,24,24,25,25,26,26,27,27],"right_children":[2,4,6,8,10,-1,12,-1,-1,14,16,-1,18,20,22,24,26,28,-1,30,32,34,36,38,40,42,44,46,-1,-1,-1,-1,-1,-1,-1,-1,-1,-1,-1,-1,-1,-1,-1,-1,-1,-1,-1],"split_conditions":[7.1E1,1.925E1,1E0,1E0,8.285E1,-1.9903491E-1,1E0,-2.1515961E-1,-5.314371E-2,5.035E1,1E0,-1.6470435E-1,1.094E2,4.635E1,6.995E1,7.55955E3,1E0,7.6898E3,-1.12444825E-1,4.5E1,1E0,6.455E1,7.435E1,1.076E2,7.8065E3,1E0,1E0,1E0,9.912402E-2,-3.5692838E-3,1.3561448E-1,-2.507252E-1,8.675046E-2,6.9622576E-2,2.58834E-1,-1.2898032E-1,1.04416914E-1,3.960419E-3,-7.139398E-2,2.2951205E-1,5.506998E-2,-9.307787E-2,3.605725E-2,2.4352984E-1,-3.1050293E-2,1.4549879E-2,-1.8133213E-1],"split_indices":[4,14,13,0,15,0,11,0,0,15,25,0,14,14,14,15,1,15,0,14,25,15,14,14,15,9,0,20,0,0,0,0,0,0,0,0,0,0,0,0,0,0,0,0,0,0,0],"split_type":[0,0,0,0,0,0,0,0,0,0,0,0,0,0,0,0,0,0,0,0,0,0,0,0,0,0,0,0,0,0,0,0,0,0,0,0,0,0,0,0,0,0,0,0,0,0,0],"sum_hessian":[7.302016E2,7.1824945E2,1.1952147E1,3.933939E0,7.143155E2,1.801449E0,1.0150698E1,1.7528353E0,2.1811037E0,9.344577E1,6.2086975E2,1.0896488E0,9.0610485E0,5.7661415E1,3.5784355E1,5.281076E2,9.2762146E1,7.1690087E0,1.89204E0,5.1901955E1,5.759461E0,1.994023E1,1.5844124E1,5.242948E2,3.8127995E0,8.26226E1,1.0139552E1,5.2466636E0,1.9223452E0,4.383471E1,8.067244E0,4.040567E0,1.7188941E0,1.2269488E1,7.6707416E0,7.918277E0,7.9258466E0,5.0366907E2,2.062573E1,1.975298E0,1.8375014E0,6.2525726E1,2.0096869E1,5.628982E0,4.5105705E0,4.0326953E0,1.2139684E0],"tree_param":{"num_deleted":"0","num_feature":"26","num_nodes":"47","size_leaf_vector":"1"}},{"base_weights":[-5.1450753E-3,3.9645773E-3,-1.5941338E-1,1.9976702E-3,1.958852E-1,-5.4482126E-1,-6.705983E-2,5.3963764E-3,-6.144174E-1,-7.168122E-2,-2.1568634E-1,1.8299235E-1,-1.9797397E-1,-2.3199372E-2,4.585105E-2,-2.1266489E-1,-5.8798976E-2,-1.6383983E-1,1.4136568E-1,-7.919294E-3,2.4364088E-1,-5.79639E-1,-9.889123E-2,-9.559111E-3,-2.9861152E-1,3.3154532E-1,3.3027887E-2,4.1652417E-1,-3.8734946E-1,-2.1683457E-1,-1.4207693E-2,7.2990984E-1,-2.5231984E-1,-3.3803718E-4,-1.755906E-1,-1.14979455E-2,-2.7605575E-1,-1.7213937E-2,3.174798E-2,-1.8573495E-3,2.8046015E-1,-1.8503794E-1,8.847515E-2,2.73132E-1,7.1984306E-2,-2.3478098E-1,-3.3021364E-2],"categories":[],"categories_nodes":[],"categories_segments":[],"categories_sizes":[],"default_left":[0,0,0,0,0,0,0,0,0,0,0,0,0,0,0,0,0,0,0,0,0,0,0,0,0,0,0,0,0,0,0,0,0,0,0,0,0,0,0,0,0,0,0,0,0,0,0],"id":17,"left_children":[1,3,5,7,-1,9,11,13,15,17,-1,19,21,23,25,-1,-1,-1,-1,27,-1,29,31,33,35,-1,37,39,41,-1,-1,43,45,-1,-1,-1,-1,-1,-1,-1,-1,-1,-1,-1,-1,-1,-1],"loss_changes":[1.0226798E0,8.765283E-1,1.4076897E0,1.4417832E0,0E0,5.831113E-1,1.1450464E0,7.921529E-1,1.0222435E-2,1.0772384E0,0E0,1.4669082E0,8.015951E-1,1.5047334E0,3.8149068E0,0E0,0E0,0E0,0E0,1.8231802E0,0E0,3.0676246E-1,2.6304278E0,1.860702E0,3.0232153E0,0E0,1.856634E0,1.1785698E0,1.1159173E0,0E0,0E0,7.00618E-2,1.1943567E0,0E0,0E0,0E0,0E0,0E0,0E0,0E0,0E0,0E0,0E0,0E0,0E0,0E0,0E0],"parents":[2147483647,0,0,1,1,2,2,3,3,5,5,6,6,7,7,8,8,9,9,11,11,12,12,13,13,14,14,19,19,21,21,22,22,23,23,24,24,26,26,27,27,28,28,31,31,32,32],"right_children":[2,4,6,8,-1,10,12,14,16,18,-1,20,22,24,26,-1,-1,-1,-1,28,-1,30,32,34,36,-1,38,40,42,-1,-1,44,46,-1,-1,-1,-1,-1,-1,-1,-1,-1,-1,-1,-1,-1,-1],"split_conditions":[1E0,8.02285E3,4.6E1,7.1E1,1.958852E-1,2.48E1,6.2E1,1E0,1E0,2.015E1,-2.1568634E-1,1.094E2,1E0,5.2E1,3.685E1,-2.1266489E-1,-5.8798976E-2,-1.6383983E-1,1.4136568E-1,1E0,2.4364088E-1,5.96995E3,5.3178E3,9.565E1,1E0,3.3154532E-1,1E0,1E0,1E0,-2.1683457E-1,-1.4207693E-2,6.7E1,6.6E1,-3.3803718E-4,-1.755906E-1,-1.14979455E-2,-2.7605575E-1,-1.7213937E-2,3.174798E-2,-1.8573495E-3,2.8046015E-1,-1.8503794E-1,8.847515E-2,2.73132E-1,7.1984306E-2,-2.3478098E-1,-3.3021364E-2],"split_indices":[21,15,4,4,0,14,4,12,1,14,0,14,11,4,14,0,0,0,0,12,0,15,15,14,22,0,6,10,3,0,0,4,4,0,0,0,0,0,0,0,0,0,0,0,0,0,0],"split_type":[0,0,0,0,0,0,0,0,0,0,0,0,0,0,0,0,0,0,0,0,0,0,0,0,0,0,0,0,0,0,0,0,0,0,0,0,0,0,0,0,0,0,0,0,0,0,0],"sum_hessian":[7.262649E2,6.866897E2,3.957521E1,6.8561487E2,1.0748413E0,6.7030187E0,3.2872192E1,6.828411E2,2.7737124E0,2.183054E0,4.5199647E0,1.1159402E1,2.1712791E1,4.0030707E2,2.825341E2,1.6965098E0,1.0772026E0,1.1617888E0,1.0212653E0,9.318995E0,1.8404063E0,3.4754329E0,1.8237358E1,3.8240262E2,1.790444E1,2.3604128E0,2.8017368E2,4.3524427E0,4.966553E0,2.4568334E0,1.0185994E0,2.261845E0,1.59755125E1,3.778703E2,4.5323243E0,1.3368164E1,4.5362763E0,1.2506679E2,1.5510689E2,2.9415922E0,1.4108506E0,3.78847E0,1.1780831E0,1.0257252E0,1.23612E0,2.426859E0,1.3548654E1],"tree_param":{"num_deleted":"0","num_feature":"26","num_nodes":"47","size_leaf_vector":"1"}},{"base_weights":[-4.584506E-3,1.5024032E-2,-6.919215E-2,8.410671E-3,4.619341E-1,-6.224977E-1,-4.595292E-2,1.1912475E-2,-1.9951224E-1,-2.035535E-1,7.5433403E-1,-7.1781087E-1,-1.2814004E-2,3.5001764E-1,-6.1651204E-2,6.0110064E-3,3.9809564E-1,3.6277586E-1,2.7621767E-1,-2.5574842E-1,-3.6683645E-2,-2.48814E-1,-8.959618E-3,1.4284446E-2,-4.0652323E-1,9.064839E-1,-3.6649507E-1,1.9239925E-1,-5.162066E-2,-7.7621E-2,-6.115432E-1,3.9188102E-1,-4.575711E-2,5.7617556E-3,-1.4008999E-1,-2.3361583E-1,1.6216294E-1,4.446261E-2,4.7167048E-1,-2.2354873E-1,9.051367E-2,-1.1974795E-1,9.14545E-2,5.2468497E-2,-3.666054E-1,4.9607456E-3,2.4372573E-1,-3.065298E-1,-8.1647355E-5],"categories":[],"categories_nodes":[],"categories_segments":[],"categories_sizes":[],"default_left":[0,0,0,0,0,0,0,0,0,0,0,0,0,0,0,0,0,0,0,0,0,0,0,0,0,0,0,0,0,0,0,0,0,0,0,0,0,0,0,0,0,0,0,0,0,0,0,0,0],"id":18,"left_children":[1,3,5,7,9,11,13,15,-1,-1,17,19,-1,-1,21,23,25,-1,27,-1,-1,29,31,33,35,37,39,-1,-1,41,43,45,47,-1,-1,-1,-1,-1,-1,-1,-1,-1,-1,-1,-1,-1,-1,-1,-1],"loss_changes":[9.1868335E-1,1.6409309E0,2.142298E0,1.3036072E0,3.2117748E0,3.409996E-1,3.1769755E0,1.2455142E0,0E0,0E0,1.1706526E0,3.5396624E-1,0E0,0E0,1.5951178E0,1.849995E0,3.529828E0,0E0,8.745512E-1,0E0,0E0,2.159745E0,1.8974658E0,1.2658304E0,4.1775703E0,2.4066105E0,1.2362785E0,0E0,0E0,3.232226E0,5.615554E0,1.6942877E0,5.2207704E0,0E0,0E0,0E0,0E0,0E0,0E0,0E0,0E0,0E0,0E0,0E0,0E0,0E0,0E0,0E0,0E0],"parents":[2147483647,0,0,1,1,2,2,3,3,4,4,5,5,6,6,7,7,10,10,11,11,14,14,15,15,16,16,18,18,21,21,22,22,23,23,24,24,25,25,26,26,29,29,30,30,31,31,32,32],"right_children":[2,4,6,8,10,12,14,16,-1,-1,18,20,-1,-1,22,24,26,-1,28,-1,-1,30,32,34,36,38,40,-1,-1,42,44,46,48,-1,-1,-1,-1,-1,-1,-1,-1,-1,-1,-1,-1,-1,-1,-1,-1],"split_conditions":[3.27355E3,3.1834E3,7.01E1,6.2E1,1E0,7E1,7.06E1,5.3E1,-1.9951224E-1,-2.035535E-1,1E0,1E0,-1.2814004E-2,3.5001764E-1,4.0242E3,4.6E1,1E0,3.6277586E-1,1E0,-2.5574842E-1,-3.6683645E-2,3.7824E3,4.4E1,1E0,1E0,1E0,5.8E1,1.9239925E-1,-5.162066E-2,9.545E1,8.965E1,1E0,4.6E1,5.7617556E-3,-1.4008999E-1,-2.3361583E-1,1.6216294E-1,4.446261E-2,4.7167048E-1,-2.2354873E-1,9.051367E-2,-1.1974795E-1,9.14545E-2,5.2468497E-2,-3.666054E-1,4.9607456E-3,2.4372573E-1,-3.065298E-1,-8.1647355E-5],"split_indices":[15,15,14,4,13,4,14,4,0,0,11,23,0,0,15,4,0,0,0,0,0,15,4,21,9,5,4,0,0,14,14,10,4,0,0,0,0,0,0,0,0,0,0,0,0,0,0,0,0],"split_type":[0,0,0,0,0,0,0,0,0,0,0,0,0,0,0,0,0,0,0,0,0,0,0,0,0,0,0,0,0,0,0,0,0,0,0,0,0,0,0,0,0,0,0,0,0,0,0,0,0],"sum_hessian":[7.233442E2,5.555126E2,1.6783162E2,5.4841595E2,7.096623E0,5.7255216E0,1.621061E2,5.465563E2,1.8596649E0,1.1787317E0,5.917891E0,4.7127132E0,1.0128082E0,1.1346357E0,1.6097147E2,5.3933E2,7.226222E0,2.2489016E0,3.6689897E0,3.491583E0,1.2211305E0,3.454479E1,1.26426674E2,5.296727E2,9.657297E0,4.228828E0,2.9973943E0,1.7847492E0,1.8842404E0,2.4293339E1,1.025145E1,9.818845E0,1.16607834E2,5.2526135E2,4.4113755E0,7.060344E0,2.5969524E0,2.5486228E0,1.680205E0,1.8396907E0,1.1577035E0,1.3174232E1,1.1119107E1,4.7918744E0,5.4595747E0,5.7373633E0,4.0814815E0,4.236561E0,1.1237127E2],"tree_param":{"num_deleted":"0","num_feature":"26","num_nodes":"49","size_leaf_vector":"1"}},{"base_weights":[-4.5882445E-3,-4.4911963E-1,-1.7780263E-3,-1.967688E-1,-4.1001774E-2,3.958833E-1,-5.5288104E-3,2.702205E-1,-9.11392E-2,6.490612E-3,-1.2221797E-1,-1.2618941E-1,6.673217E-2,-1.19293585E-1,1.637183E-2,-2.3634255E-1,-8.328983E-2,1.9288856E-1,-2.640914E-1,4.3566993E-1,1.1926619E-2,5.69035E-2,-2.3477297E-1,-9.4708325E-3,2.4417959E-1,8.261881E-3,-1.1815326E-1,-8.8758953E-4,2.2217919E-1,-2.2050694E-1,4.543004E-3,5.292742E-2,-1.5264139E-1,-1.4852612E-1,2.5385791E-2],"categories":[],"categories_nodes":[],"categories_segments":[],"categories_sizes":[],"default_left":[0,0,0,0,0,0,0,0,0,0,0,0,0,0,0,0,0,0,0,0,0,0,0,0,0,0,0,0,0,0,0,0,0,0,0],"id":19,"left_children":[1,3,5,-1,-1,7,9,-1,11,13,15,-1,-1,17,19,-1,21,23,25,27,29,31,33,-1,-1,-1,-1,-1,-1,-1,-1,-1,-1,-1,-1],"loss_changes":[9.0072864E-1,2.0299685E-1,1.0733196E0,0E0,0E0,1.7353553E0,9.999779E-1,0E0,5.4100776E-1,8.0590343E-1,1.659457E0,0E0,0E0,2.1860244E0,1.1142447E0,0E0,1.3729122E0,2.1925066E0,1.2477918E0,8.411182E-1,1.441546E0,2.3922324E0,2.6164198E0,0E0,0E0,0E0,0E0,0E0,0E0,0E0,0E0,0E0,0E0,0E0,0E0],"parents":[2147483647,0,0,1,1,2,2,5,5,6,6,8,8,9,9,10,10,13,13,14,14,16,16,17,17,18,18,19,19,20,20,21,21,22,22],"right_children":[2,4,6,-1,-1,8,10,-1,12,14,16,-1,-1,18,20,-1,22,24,26,28,30,32,34,-1,-1,-1,-1,-1,-1,-1,-1,-1,-1,-1,-1],"split_conditions":[1.925E1,1E0,1.945E1,-1.967688E-1,-4.1001774E-2,1E0,5.9E1,2.702205E-1,1.1E1,2.085E1,3.00815E3,-1.2618941E-1,6.673217E-2,2.025E1,2.425E1,-2.3634255E-1,1E0,2.01E1,1.99E1,1E0,2.475E1,1.0605E2,7.1562E3,-9.4708325E-3,2.4417959E-1,8.261881E-3,-1.1815326E-1,-8.8758953E-4,2.2217919E-1,-2.2050694E-1,4.543004E-3,5.292742E-2,-1.5264139E-1,-1.4852612E-1,2.5385791E-2],"split_indices":[14,0,14,0,0,0,4,0,4,14,15,0,0,15,14,0,10,14,14,0,15,14,15,0,0,0,0,0,0,0,0,0,0,0,0],"split_type":[0,0,0,0,0,0,0,0,0,0,0,0,0,0,0,0,0,0,0,0,0,0,0,0,0,0,0,0,0,0,0,0,0,0,0],"sum_hessian":[7.2066626E2,3.5295618E0,7.171367E2,1.4624767E0,2.0670848E0,5.724024E0,7.1141266E2,2.393465E0,3.3305585E0,6.4583374E2,6.557893E1,1.457604E0,1.8729546E0,4.623294E1,5.9960077E2,2.5605927E0,6.3018337E1,1.4544046E1,3.1688896E1,5.2723594E0,5.943284E2,3.3053043E1,2.9965294E1,1.1380179E1,3.1638668E0,1.0000233E1,2.1688663E1,2.568274E0,2.7040854E0,1.5729654E0,5.927555E2,2.785587E1,5.197175E0,1.620646E1,1.3758833E1],"tree_param":{"num_deleted":"0","num_feature":"26","num_nodes":"35","size_leaf_vector":"1"}},{"base_weights":[-4.3530967E-3,-1.7776182E-1,-2.6409775E-3,2.8032357E-2,-3.5724547E-2,4.4791136E-4,3.4701195E-1,-3.498594E-1,-1.3238854E-2,9.372643E-3,-6.4840966E-1,1.23046696E-1,9.817666E-1,-4.3409204E-1,1.4632389E-1,1.0032842E0,-2.3357062E-2,-2.7243538E-2,1.4210384E-1,-3.7239894E-1,2.1918003E-1,-1.0343878E-1,6.579586E-1,2.8804445E-1,3.6277816E-1,-7.428785E-1,-8.841094E-2,3.559636E-1,9.159057E-2,-5.1048315E-1,-1.1415473E-2,1.9292228E-2,-2.1482088E-2,7.696797E-2,-7.458268E-2,-9.8047644E-2,1.6885048E-1,2.766417E-1,-8.822814E-2,1.4565681E-1,-1.3091913E-2,-1.043516E-1,-3.5241166E-1,1.6507679E-1,-1.6176218E-1,-2.821527E-1,8.059248E-2,1.3699305E-1,-8.640091E-3],"categories":[],"categories_nodes":[],"categories_segments":[],"categories_sizes":[],"default_left":[0,0,0,0,0,0,0,0,0,0,0,0,0,0,0,0,0,0,0,0,0,0,0,0,0,0,0,0,0,0,0,0,0,0,0,0,0,0,0,0,0,0,0,0,0,0,0,0,0],"id":20,"left_children":[1,-1,3,5,7,9,11,13,15,17,19,21,23,25,-1,27,29,31,33,-1,-1,35,37,39,-1,41,43,-1,-1,45,47,-1,-1,-1,-1,-1,-1,-1,-1,-1,-1,-1,-1,-1,-1,-1,-1,-1,-1],"loss_changes":[7.2265637E-1,0E0,7.29689E-1,3.2833135E0,2.4386668E0,2.0008523E0,4.101546E0,1.8391485E0,3.3542185E0,1.6601018E0,4.739996E0,2.8663414E0,8.5157347E-1,2.2279677E0,0E0,4.8904657E-2,1.8650674E0,1.0928315E0,3.3660543E0,0E0,0E0,2.7277472E0,2.033426E0,2.3015064E-1,0E0,1.5044603E0,3.542391E0,0E0,0E0,2.8233943E0,2.5759327E0,0E0,0E0,0E0,0E0,0E0,0E0,0E0,0E0,0E0,0E0,